2.1422139383949235,-0.18928162325814116,0.20526356326217576,0.09101668499432551,0.18679093818036735,-0.6089856391088894,0.24237340769816437,-1.1674224810645055,-0.1200607477970782,1.0276298733796987,2.6686833084898898,0.011108395568490848,1.2014960077802883,1.1033441673815272,-0.8682501432636629,0.17020099420034154,2.779008536920191,0.5345142480298121,-1.0770995113124266,-0.9453268989697231,-0.008724319593698418,2.352847567012205,-0.19418246111345472,0.6634108477029244,1.640512883683387,-0.18606652751942565,0.7110963100124283,-0.037869328701753545,-0.18329865072276771,0.4733393429505149,0.8980997765988189,0.6141093651853688,0.5736492859289073,-0.025419948124963107,2.345691339883807,0.5863624836689038,-0.06287391939906375,-0.2566472761472045,-0.1645042307936653,-1.3966656555923302,
0.05106555588700824,-0.1655247395870588,-0.1094653773972577,-0.10408327260687476,0.2094383445189067,0.23752725200042404,0.1909150904578255,-0.09625149911693687,-0.352529528749452,-0.5868378482105714,-0.4365855342053931,0.6447590587244799,-0.18031222740957917,0.07232791142260285,-0.06465595113331672,-0.4209779939509035,-0.14825815915378018,-0.3422231352035465,0.24950446440069018,0.5348119317198795,-0.41005708460660334,-0.22259379717241795,-0.04607324382578402,-0.21728818339445974,0.07099290687120806,-0.01488684567204842,-0.5557138333129013,-0.4227393761448054,-0.007139322598992328,-0.25339290511321966,-0.2328513689584969,-0.20641931604632469,-0.3553904130554135,-0.22549282274167426,0.32640885156056576,-0.003708183461911975,0.27332264356109937,-0.2140069013331764,-0.1285805214546766,-0.06324596597850025,
0.42357033136958633,-0.11385814963655405,-0.17728708714572217,-0.05977168982170148,-0.04241905822704113,-0.17530854202016047,-0.03257512148114046,-0.24787854038001458,0.02903612026639722,0.01083233161214647,-0.13870429289264513,-0.13478599727591875,0.021201120940381242,-0.0631445198026053,0.07939583392683383,-0.05214951668667715,0.08971064976469839,0.13268970022480794,0.16496155034259163,-0.07784867454381113,-0.09332314000063079,-0.02451926612457216,0.1466429279730144,-0.07836730262298544,-0.01824687898361148,0.06232985285463975,-0.19271455392889617,-0.18053748801204175,-0.0883360767983454,-0.0707885106639571,-0.16820054331156503,-0.03495652968552948,0.16688977718567038,-0.19076864836824944,-0.07980618702313125,0.0941355324012446,-0.029978690744253796,-0.18570097185884973,0.10776172329222283,-0.08451445350216075,
-0.3847017378068172,-0.3910919489394458,-0.11001722164358274,-0.18903692815175258,0.020213246433182577,-0.2422009954358075,0.11047443904423067,-0.2417875377965303,-0.21305023226554945,0.1629945773508216,-0.22009358124206074,-0.11942008859580812,-0.6190692445666885,0.00755268906417906,-0.1465170589485754,-0.25942555930847194,-0.07508317269865301,0.07107868291342703,-0.006381846719231509,-0.2820235961331245,-0.16146110728122678,-0.22783367053603687,-0.3398960207785588,-0.2834931455125273,-0.15369339474153773,-0.5977474924633014,-0.18244258079487732,-0.1473515632998788,-0.38529658226835456,-0.3349103488867168,-0.40654523267975395,-0.0944886557007882,-0.4394799639487451,-0.2001149924182972,-0.6025332740010153,-0.26652549167806594,0.21052298583123505,-0.13442216360392403,-0.4265743559993864,-0.4126861312256696,
-1.65815617191546,-0.4984485099600572,-0.5314965591528353,-0.5360033709092745,-1.3316575447464638,-1.2747913332620868,-0.18450509838127507,-2.0087858516537276,-1.622075545163974,-0.8641083870293984,
