-0.015109270673728048,0.4562919767683219,0.06911959954963642,0.20369322162881293,0.15821805039536552,0.26740742961058334,0.27594185671889254,0.47185461565021813,-0.3003334289459634,0.27377046565150476,-0.17527393682339304,0.02250111179373042,-0.24417946359356843,-0.476202312821294,-0.6633767109993763,0.14318897810859874,0.317928773525767,-0.38643042074434736,-0.36044782860525876,0.2776732518723266,-0.3105305196746585,-0.11041953325082735,-0.1796840029951822,0.338814432430061,-0.05347139608475218,0.10626219726310472,0.4985847299504241,0.35005774274288154,0.743493190889433,0.7044635251078883,0.731915363702629,0.06240237324140886,0.03385427540283367,-0.14711811501175737,-0.28775800479267744,-0.3521437539617535,0.11502511288102847,0.11398300918328495,-0.20365655667785118,-0.44595132969684625,-0.21154753115321073,-0.04746210086339744,0.0399264570345186,-0.19814241356862744,0.008844904819410323,-0.21034218753044062,-0.04731500114384352,0.12415964167695945,0.11745926193804614,0.2685681147547709,-0.14221051631437576,-0.4865275942951824,0.1556079238996232,-0.05881767805125331,-0.14888656510450704,-0.20519519325472937,0.3298399803243312,0.4142913309311929,-0.06364650075693574,-0.4203369962567465,0.41308474179676075,0.4413298756199017,0.30987583391482676,-0.1475283214930197,-0.02976180247895666,-0.3710662406779208,0.04556252463376321,-0.18245571120450993,-0.2170889512032932,-0.12286089405131233,-0.21619809356447017,-0.01262009671860096,0.05483408375853566,0.1720539777382294,0.18170319029128504,-0.4203569768441709,-0.10766550844254506,-0.039984306183267516,-0.2090199539771607,0.036392742853955724,-0.10317153816209922,0.10951957745780114,-0.1729375958674674,0.09584972423243182,-0.30462557023356085,-0.10984515628344632,-0.048259424411349575,0.5483413952361391,-0.03723362946966355,0.004790746628257228,0.2699440609218592,-0.04912161211972775,0.23269838634123516,0.16916800434648419,-0.1721128505312121,-0.3544773700903685,-0.049662827797815556,-0.20979130114867858,-0.15517906899173753,-0.17875801951787698,-0.28413474158382024,0.17810738968707746,0.04332501836079522,0.1494408211693026,0.31740334081538174,0.148509689284248,0.1838941555835157,0.06438641005208888,0.20128902236906948,-0.4942159106968369,0.009906553723851724,-0.26156242751231534,-0.20448615229413122,0.37638942373027656,0.3000648598298701,0.10276567485381892,-0.332728696602931,0.0034113068744682294,-0.31208426746600954,-0.2598322949781157,-0.087714255331931,0.042705685260294605,-0.03293019512515901,0.1968131631075467,0.34677921473796885,0.06553919670168844,-0.30676431096301726,-0.17307015703610729,-0.27464033764720924,-0.35699976209063977,-0.1961222243235836,0.015713857499572083,0.09787023511055742,-0.3401912950215771,-0.43138050315412463,-0.4047954260387432,-0.40618147171954294,0.05854148996634546,-0.10075653580889671,0.02984664987190583,-0.12741884907558162,-0.008785969205578278,-0.33088565047955115,-0.2640136312879529,-0.07603754218353281,0.3020374743975177,0.07226430177254269,0.11265251363435412,0.34107275027527306,0.11252010685949812,-0.010529313988833333,0.09543976868776902,-0.06714362077757433,0.14768948799642428,0.08814873042671843,0.05596738357585449,0.16575970439464607,-0.517079390215359,-0.2682217946221382,-0.4456583261469592,-0.32645022931109,-0.18068819293011032,-0.5313964135886926,-0.6897059848227848,0.17505979830991109,-0.14707498455276177,-0.030529098385827524,-0.07117978722555247,-0.2578357578784617,-0.4379142857432764,0.09724188753865584,-0.14099894295190726,-0.021558658212806323,-0.07868630827349199,0.07188872969556974,0.6238277074481893,-0.045928244823364606,-0.004027653078780067,-0.21496525484978837,0.1437588038609062,-0.22743545845305138,-0.3278591207436239,0.028725127004922166,-0.06111792703902141,-0.10930432271578364,-0.35705448958819946,0.027549040740448547,-0.3517929043248683,0.05466621917556373,-0.23903915053086106,-0.17457044117757486,-0.14120648033720007,-0.3865575415076719,-0.2787909416209161,-0.028976535070037265,-0.1874628842732864,-0.5482004950676638,-0.19116953598592887,0.16410843574830794,-0.06411478701518754,-0.07886878423607248,-0.34652380583445613,-0.19231101920762209,-0.07643894258763162,0.1352032931217835,-0.32664381410549304,-0.3826019468480712,-0.5517211405560012,0.12058062362541636,0.08080112215714495,0.15313849208803068,-0.280908104700982,0.33504955364015504,-0.09398159096678542,0.01079968944171896,-0.32326348887940143,-0.42300993027592526,0.2215783360057692,0.16683404894083168,0.5651934732031583,0.21141713335055834,0.12786630702823068,0.20293704761493783,0.08612287769937947,-0.07485909408093776,-0.17235249341504313,-0.18378981343584208,-0.01951131138899758,0.09713310367227615,0.13195019272465114,0.19172351001469984,0.1548662240889402,0.6500324892006697,0.06705960024835822,-0.104981058238657,-0.4866749996478616,-0.27084948413665255,0.03858475322304,0.09441910209095593,-0.13764864409516145,-0.27168557388648246,0.17458305976803024,0.06731643571248737,0.20610370476620107,0.45425549608313454,-0.19087081043174836,0.2586846435751099,0.29700787948678525,0.732821258909735,0.46506925623697415,0.1184737943012368,-0.06101299731544063,0.1515920541490326,0.1612217413372804,0.0896814826431508,0.301162597535745,0.18626761211312245,-0.26559120985380186,0.06420246899955971,-0.09972845283673135,0.13117093748085465,0.32274955909517944,0.615716608409368,0.028721197676849445,-0.27876812875288287,-0.30109754118942467,-0.01982099799390197,-0.22979740661508494,0.03861570768835288,-0.24725075572518873,-0.05682288999052499,0.4383337973021366,-0.05283600303154659,-0.048281083869233514,0.5311284814678152,0.07324067763905534,-0.49451912261722325,0.372185852539813,0.35738009366604634,-0.0016770187566399705,-0.4005535434492436,-0.49953547691245337,0.005380462612675307,-0.3567253742220708,-0.4146922419118181,0.05556925737316453,-0.17405222244336732,-0.19939031319569864,-0.08232437363992717,-0.4504903375639841,-0.03272063339759184,-0.07764611610273894,0.057553787972880605,-0.21807195206595636,-0.11627754629738929,-0.2591726742072301,0.33161257315300124,-0.057621892081581826,0.18221542796260973,0.021302182186662993,0.34045639259035015,0.4853427001994968,0.27488150646849235,0.318153632298989,0.046109888157002385,0.01716848803731687,0.30574497269129,0.13689248066805595,-0.1996824177127564,-0.16645843211987701,-0.1269551218257644,-0.39099939517109245,-0.2167484283588906,0.41845502470725665,-0.6911661477083315,-0.16405968613738528,-0.11723447832691902,-0.35788344596260896,-0.29128527106850094,-0.039185180742264576,0.15236701390344679,-0.4010472631257261,0.06766711616786542,0.014538808098645427,-0.05031598975634155,0.2617797392261685,0.35206183729204255,-0.17818698572797764,0.06610549182700218,0.06302230703869702,0.2740473295099101,0.10693985366879279,0.19063675475055517,0.10626325600270412,0.010535664857353971,0.11371149482221798,0.38178386948109005,0.2254044937635711,-0.14005034397566735,-0.4121977718809678,-0.25556784990643605,0.03865158402444129,-0.3562446591136585,-0.10918309564290966,0.22440420838056924,0.019490857374854238,-0.11663858686433921,0.23051758173179396,-0.13531270353594954,-0.38982442473432394,0.0028624001448712202,-0.14268550561189855,0.34725797235325107,-0.03865049788536849,-0.21670690281592406,-0.26077108049627873,0.03060956578006847,0.3236666504241772,-0.07482144351726212,0.19439157273363533,-0.26239493878316067,0.26833667915927883,0.46409558234210785,-0.22188483018682106,-0.19224922020168803,0.14912720420984785,0.07904767601607182,0.013611358378092091,-0.051692076810605905,-0.34741439363998794,0.09077450411584938,-0.051557078765977406,-0.18088863522729987,-0.32674265071775965,-0.12785949135148308,-0.39915436567035484,0.04496385281313074,-0.3147786654859216,0.34935446930779746,-0.15541267246912258,-0.3490827370773541,-0.04748268668438501,-0.007605272695615383,-0.1510621993822055,0.1596890652838691,0.09569904014406082,-0.13806164504609683,0.38806922957199014,0.628658031421784,0.31659069362081865,0.15913699531691572,0.10781066090194573,-0.39753475724318327,0.6104899620130418,-0.31886622362907147,0.1534323224528792,0.0916523556994545,-0.2959162462141625,0.14858909944615112,0.16342133388432745,0.016074983580850927,-0.3580843183649182,0.026311585072065078,-0.20581148713132819,-0.1170758071438941,-0.31629351872895856,-0.3352624094518402,-0.17948749778664705,-0.36894066391655517,-0.19359994150246823,0.17946322177551519,-0.3687835844741303,-0.4636488184394957,-0.29241496544257684,-0.3523478679995098,0.07252213218554879,0.2590760294917929,-0.14472961233791584,0.07560241558986308,-0.28851872095428044,-0.10407406563800999,0.3319598028542713,0.12382201722295302,-0.22596369389704618,0.1857681624711163,-0.01140041767085537,-0.24206383022669273,-0.045262420419436594,-0.1095142137223713,0.22609471393508837,0.21473524477319453,-0.03770928420636685,0.2671335490702386,-0.27051272809668336,-0.2069995765960694,-0.07826702248727468,-0.5725871009974957,-0.3793359579571808,-0.022679244394534177,0.4200039966761701,0.042516855769554586,0.3821083843220401,0.1821854796931976,-0.003971988955991888,0.02018383076779872,-0.47352124003446283,0.4882508563148613,0.07563045475559736,-0.26342328449157026,-0.37239365477504505,0.4552965216310881,0.03475492520281997,-0.07700415821196908,-0.18429902288709593,0.059372609079482615,-0.3386460960891081,0.1089490872098472,-0.2309819936090377,0.16496119981749363,0.288546724906979,0.14068051041110916,-0.16516622006300133,-0.08772114288383723,-0.7100867368208038,-0.3372198850456723,-0.46903271928432355,-0.023029151877236472,-0.17992712912812128,-0.19611460343405887,-0.33597866780240165,-0.28272791051427204,-0.17975208082896446,0.051517151734750403,-0.10749369667261352,-0.6908512243620298,0.01875850867036842,0.26589325805292857,0.1259913528735564,0.3065724568686898,0.13124056429094066,0.05743374705616287,0.263643184437954,-0.3429174673388359,0.27616571618670743,-0.4302481865000435,-0.27256638787398907,-0.3166734932453618,-0.3028293644390513,0.08163591211188026,0.17495057139224912,0.22072646309378838,-0.3603824471567908,-0.3107248264572738,-0.19138152437337105,-0.11498545565686204,-0.18249506902219492,-0.2687142115826502,0.03806607737377528,-0.3772404216984283,-0.009360716037765636,-0.5033693195851872,0.1290660982564679,-0.28800051520914355,-0.051952926456712935,-0.5704501244998315,0.27506057393805855,-0.10026128341513392,-0.005829811805346227,-0.02381349256966863,-0.2257781489941628,-0.08592195338413812,0.12106503583171428,0.38542564797438567,0.29734300650648604,-0.10659520173552872,-0.038486968472713975,-0.3276544151515663,-0.5261317428900065,0.2351325116638238,0.30090535902462945,-0.14554144887237133,0.3302935185912911,0.049693811799419584,-0.5989045981810693,-0.18928345497810706,-0.08836205662638812,-0.21333141597545685,-0.20453362944751546,-0.5513806216098913,-0.1748775818473471,0.14283096548782978,0.03707662961710757,-0.07505440184800315,-0.10101939919806158,-0.17164516203349378,-0.060535866497357586,0.0481595357821611,0.09256997813250749,0.2078675589704993,0.034321683122089996,0.13283204605883756,0.040535107085953946,0.1384120192023367,0.21398728792773913,-0.1587509919619734,-0.2660072222596698,-0.2648765352995049,0.08049624129754174,0.1311635873711637,0.16660370532876997,0.16010141495661592,-0.3303173709905476,-0.2886900302531913,0.1792617783693295,0.06876387656526585,0.0024123629130082527,-0.18422335130821307,-0.09367334720866538,-0.06682274381252258,0.15581340831215174,0.032088194382527704,0.013471098082756993,-0.1078561673991402,-0.30273102993246354,0.07498232352674203,-0.060660804563123075,-0.5840830405413688,0.08440050155294793,-0.11566676387809718,0.6248759356145778,0.11970886569662134,0.14592010778047068,0.16568964264381233,0.06890319003614821,-0.3950051433226472,0.11570728590926005,-0.03752530818964291,-0.43351490363737905,0.4510138536942026,-0.11167998908705262,-0.09535378258800328,-0.20084545562564737,0.08790453158594656,-0.0918176593165217,-0.32072725837771787,-0.3707935117462911,-0.22031606040302915,-0.010903083055787565,0.2824277463987167,0.018663015771195564,-0.03793766380129379,-0.16066436451574773,0.37514535327995524,-0.015604823739479691,0.15535905724688065,-0.34850784405499796,0.29273111972982785,-0.23978808294040244,-0.2557585888681992,0.22259514671589725,0.009941099679770667,0.07918275031155796,-0.14446061312032352,0.07865678064444512,-0.10929423183251286,-0.14045092112265978,-0.31810067966863925,0.12653581167029992,-0.3682246014316194,0.03387833335822193,0.028957129982107182,-0.21406118710763258,-0.2943670136464795,0.03971609923431644,0.022515281982109725,0.12588258958967954,-0.2082781616187808,-0.10638829382319173,-0.14054975898741023,-0.2735862647797129,-0.12542689304438942,-0.3133844589655877,0.28611398291641915,-0.1735820864599112,0.526743666762003,-0.5359868730983791,-0.1181749499809625,-0.08026209359241127,-0.24641838464039292,0.3965268234649373,0.12739293372438562,0.18467827641910126,-0.021806065878463763,-0.1334892114072079,-0.24361365592839201,-0.3732942278945137,-0.22029947813906664,0.33888837018156004,0.1717407177462297,-0.3994089588958693,0.1306990007087516,-0.4339423301564059,-0.14459621560756564,0.32251951426125486,0.2371151594187886,-0.24112641149851247,-0.1841786579335129,0.15133719743326357,-0.08057718530143271,0.2998381378581237,-0.37871515535374345,-0.0907418526842481,0.38006505596973916,-0.35760408453303927,-0.4292098774639614,0.09730606296360339,-0.2767399435370973,0.503896875571165,0.13479927644761697,-0.2634233247557938,-0.0557149154631932,-0.47531020718419403,0.22951724684674726,0.15139397700071755,-0.2594414275688979,0.189547797510215,0.024317819754031283,0.10995125305659696,0.31033586634101573,0.2583932096578463,-0.08019907929175069,-0.053390771474232865,0.06074297404294282,-0.2345634747321095,0.0992939819653289,0.03974360876227859,0.407137495697292,0.28921731415658997,-0.12244777861855852,-0.1113880869527168,0.015196974299935058,-0.21180396528539097,0.35623033479626426,-0.2439169460649939,-0.007806477105133939,-0.5076732811310923,-0.6304328632410373,-0.22624585696864713,-0.07001265524211728,-0.14277064768866737,-0.03377429458206581,0.07908850666959916,-0.1226278355722748,0.3350491390051575,0.06947234151283413,-0.28389943232930664,-0.177978314751105,-0.06578292345772624,0.28755772331183843,0.191932862345789,0.5589165744117542,-0.12245761400548956,-0.04227013456925173,-0.046055967658303464,0.09815573003327527,-0.2933182078089791,-0.0470676822084501,0.3031246379587355,-0.023735023008734524,-0.19024081468806042,-0.37508805189187305,0.0984481535648403,-0.05685240835896414,-0.05755777654270068,-0.08534532128205528,-0.042888788475666136,-0.439362551190337,-0.18432037321057093,0.17602461086851376,-0.1323174825125236,-0.10303573509442666,-0.03407162179310504,-0.058071035748720676,0.3519514711856468,0.14641874318678372,-0.169368821089259,-0.36026184225663804,0.2188395652429089,-0.2502314684575838,-0.2885520459605123,-0.03390513880253272,-0.233375445967316,-0.5453338438828341,-0.26408568570181207,0.1673472838023848,-0.15604367841198016,-0.0812204196456917,-0.7052309174253505,-0.47199192640246757,-0.31320304764387835,-0.07323912054730568,-0.005131654318641197,-0.2997578244564877,-0.2782239020804462,-0.0258287279528499,-0.30650991537332095,-0.14744129317653976,0.3001308159650642,0.008501943588304,0.292373079868538,0.07848370995480222,0.15241261429697792,0.33945504040188945,-0.08955667977093446,0.21620310025741693,-0.20722711201294533,-0.017254920174559783,-0.20282807834564456,-0.6934111092991881,0.18618951032419967,-0.014523923417268275,0.20714180075184307,-0.4950821590327511,0.41022443993858476,-0.25343152649424155,0.4335430756331818,-0.40644212390296425,-0.37841463267370673,-0.24464930486271247,-0.3586139930313419,-0.353019312951394,-0.16751845668997523,-0.34138867919778343,-0.11007291099191362,-0.3946698357082929,0.05874581869946637,-0.10516752636474107,-0.029054607865767013,-0.005859497176211864,-0.39887541712512686,-0.5487036601046746,0.1254351346728846,0.28970177122364393,0.30431948525969116,0.1575151987946768,0.08890027285238561,0.01333532169687071,-0.16396822476138115,0.05655323882591825,-0.02537558089999539,-0.34167807837415803,0.013133467755398824,-0.5510699162155461,2.0244395376428588E-4,0.17645797712684794,-0.37526937809462724,-0.0034940272022608966,-0.2255890993843825,-0.13696377821703548,-0.048967871060381585,0.14916249215942787,-0.14324387516901052,-0.009569407640945887,-0.26379188614257804,0.21563388631851452,-0.1436530305795495,-0.524239324086889,0.22313829683366476,-0.31662414194108085,-0.11852094638906874,-0.15175059810065072,0.04404110024349168,0.25389620093996934,0.18925846296114074,-0.35213446220571804,-0.4142928219096943,-0.143281017093182,-0.10112167277644611,-0.48751274039220094,-0.4323796609365948,-0.07011754165937617,0.11481962906419109,-0.045786647582592876,-0.061996107148372656,0.01752847428674183,-0.26794887140089957,-0.11010839305191704,-0.04137051246235018,-0.3258230151408508,-6.34329171548189E-4,0.17122130406340572,-0.08173385960816128,-0.04466402063175976,0.08436145635876613,-0.2799931846296925,-0.24963610596819333,-0.20767978329896236,0.28851031489609824,-0.12783683924712394,0.14229920300275098,0.3939968451402568,-0.13172644875752645,0.3694536767356581,-0.22969504963115187,-0.6341279596944266,-0.314026856913543,-0.5176102592725729,-0.38789557635176053,-0.07384012829293526,-0.04805793769524661,-0.262425139797579,-0.11522372997132613,0.16027900582034063,1.124873544691744,-0.16128714810198827,0.01694863983072717,-0.18554365882523696,-0.21646638468782237,0.20850121558426227,-0.1564102703894673,-0.3461007077767618,-0.24294355828591863,-0.03973551255344523,0.077724278243913,-0.33869648086807225,-0.27756717576828666,-0.07745963306764755,-0.30738214774897643,0.0136188986828541,0.22113030999112926,0.6122052500881984,0.06795225439698876,0.48805091884470925,-0.4612531521979,-0.1621298580338599,-0.41879132744623926,-0.21159783971355692,-0.3232201490033577,0.09573302790936505,-0.4733772208956356,0.21093732712267071,0.06679480535900738,-0.07821853620738162,0.2147757552493829,-0.12245623841614549,-0.034986547065541544,0.16100982989544907,-0.021891954197669563,0.19846333610293762,-0.05807667254807643,-0.059834384561787135,-0.41388096757474707,-0.05030426039036261,-0.16489395689117284,-0.31607060351662486,-0.05056264080086023,-0.16749721813817617,0.007859744806622772,0.2289936186853662,-0.21115521757752873,-0.323074533134733,-0.038694289101339804,0.38508662316736314,0.30965262628775725,0.1777348956309045,0.32363984437212584,0.37039283338496615,0.2738150535601907,0.20021313021759674,0.020254740082341148,0.06754253511766369,0.10360334194871554,0.4934606124703164,0.2680846290246034,0.4882965852632937,0.28484526603125115,0.3065378566740243,-0.020076698057892885,0.2017741093423486,0.3169710158758985,0.12758911866255343,-0.013673104531742655,0.11728858846920995,-0.12454502677534209,0.2846298969094853,0.1786300761707029,0.006395004960666984,0.46687926847935657,-0.00943532663911324,0.16093509887203625,0.1911794151747622,0.08851780292477922,0.46781645931592863,-0.3835852887786426,0.024408846295605965,0.215097890373745,-0.28251467716944956,-0.015191433566526585,-0.14447222655821926,0.07962770750925784,0.4489414403286404,0.3890691771062715,0.18133400014699863,-0.2783641604769256,0.18337455017062115,-0.16998329527716205,-0.16530997756938595,-0.16327995517609856,-0.016321479472711717,0.10214574671587111,-0.0408860231897544,-0.0894392638304001,-0.3754449252828676,-0.12715370566792059,0.01610015739676119,0.04536311102576281,-0.2231486946997451,0.2387956542746794,-0.33979877325512253,-0.3409906221447438,0.3723151702621772,-0.125059545533439,0.4770244824167709,0.10336807959828795,0.20855328288981023,0.39388257907721325,-0.06730826284282382,0.0986996507767539,0.3401864210176441,0.059293919769710594,-0.05181810266536917,-0.14132255282907277,0.16588255073510244,-0.15894754483913534,0.16279929448973024,-0.174235225360186,-0.12578664494858385,0.10547961733744582,-0.10499309751496103,-0.20133227587229519,0.03489037597522035,-0.0010433560830820472,-0.28075469869340997,0.5571825941420614,0.1387033267184514,-0.10651443811510093,-0.19055536637364437,0.12901675245057417,0.19607927118887875,-0.032544239633102656,0.23379805423948832,-0.15031885494285077,0.20422252515170985,-0.044714304452014256,0.27950984167235177,0.4009645039882885,0.30956573046949326,-0.3002942043168556,0.20850678959157082,-0.08771098460192887,0.2671104118692909,0.048364828242521946,-0.1350999811600447,0.03799410929312403,0.19119260758706322,0.14876129578189193,0.08643986888314051,0.1418098825428757,0.38686337945135085,0.0414717507602212,0.25076388718541787,0.03599937940857313,-0.07826826986438741,0.09312058682018173,0.010919827350762966,-0.04609463946826043,0.3366627910702796,-0.050763187049493556,-0.680626845121059,-0.17187200176153367,0.09174722734909811,-0.5686038693100156,-0.20579012533482854,0.11707245388059123,0.18301471981509151,0.1541920520581882,-0.12021634321927478,0.15704610919613246,0.25544916396674966,0.06510098438993833,0.18508727595925628,0.03518676934767126,0.2410677230340275,0.001713405508573678,0.07869426042392322,0.23483637362939078,0.14625003495022135,0.7672885886413369,0.3571999733120772,0.41493632174911355,-0.17573403472810847,0.2697912626748683,-0.059602566090356385,-0.09007993746700478,0.45128813679674384,0.16263990291155198,-0.1760086548068308,0.23830147968203352,0.10109099241867639,0.1955125003884959,-0.04405185036837609,-0.04374563695670814,-0.19966686156511612,-0.3864176273886056,-0.14349109995268228,0.030272099987781537,0.21969108096313553,-0.06934229119425984,0.14267287408162554,0.40463664438042757,0.1278178278859591,-0.040113377542045664,0.2391502148898289,0.3133354349010918,0.7499518666248026,0.02387203830813055,0.2383477514645531,0.3788047259304035,0.7388663622821714,0.30007377577190764,0.18946055335210435,0.6818829762299181,0.23048788723446742,-0.03777373218834596,0.03233733093835352,0.10452393309240482,0.16939065817573162,0.19684101313198216,-0.08254759327103216,-0.026180655335244503,-0.0014316723709625135,0.08769091654427624,0.1643277430973583,0.11296593941793553,0.0660327462948815,0.2275562755765843,0.1983523002071646,0.13186856875595532,0.019334228797966584,0.30315932968017095,0.20946680230750284,0.17878352830951066,0.1759981889221855,-0.3193645214189545,0.3086780589444186,-0.13916704430088248,-0.005926729896630013,0.15731217979406292,0.010130241397021778,0.26171292493673975,0.007935362335808455,0.3868172312366006,0.48733197951266183,0.1407498424615119,-0.04843182496439072,0.1622929530666305,-0.044484276153325245,0.09021303426665399,-0.20449264040476484,-0.24876036813513713,0.06240124314817017,-0.4615284932589832,0.19991001929396504,0.35194511728785793,0.307666510434645,-0.14359050140338275,-0.04049943978312554,-0.36716457166139177,-0.5103155188436608,-0.050858248541468705,-0.13837777391202466,-0.21750781876262235,-0.7964726415830572,-0.19373504593773433,-0.19336342281965005,-0.10941134307740802,-0.2211962702516302,-0.07368475476591044,0.04271821263043281,-0.22090226297735666,0.01058011405133139,0.2945607952187613,0.12023811080387811,-0.016149685450782582,0.315596020636702,0.27929950369299417,0.0682345138705759,0.003094372324915057,-0.16671361621368136,-0.029164199896925407,0.2008460885864565,0.16149413631763387,0.04114026814949679,0.22518509852539725,0.43307646880426937,0.09731600616835903,0.31749965019530035,-0.15659103210506445,-0.3790418465749357,-0.22649225750602422,0.041605097242896794,-0.16383609487066392,-0.19150278854474412,0.024276705899084004,-0.052460167861301976,-0.13937292325397843,-0.2895226018430008,-0.2979753976812885,0.002907853448557559,-0.22235690594570726,-0.4244518479520781,-0.23323964431239547,-0.03138407656399843,0.11670818095214924,0.14057437385217716,-0.08263241347344168,0.4360044115140486,0.040870132910306174,0.10500151209173722,0.18444797114623537,-0.12201281510809435,0.12983199522243538,0.06199345068019833,-0.06465763859799516,-0.014008139327260069,-0.03510763518030218,0.12934750181603433,-0.3384377497574963,-0.20622360675103082,-0.44220281858846977,-0.2055468111923594,-0.4662546595805315,-0.29107277278295973,0.06779699769838286,0.26739766573494056,-0.018220956158301528,-0.5778678850573655,-0.03503410803730818,-0.02812889195186629,-0.37190287707916825,-0.15278150611461988,-0.009100711425139909,-0.12031582369304523,-0.20557890374441398,0.5645821213036306,-0.09788169500796562,0.03947395804252714,0.13769055837612154,-0.19022813743555572,0.028604072715324908,0.14763117025776512,-0.2066643040614115,-0.29503626438655006,0.28814906064628365,-0.19119486413161976,-0.010502192224604955,0.2271982106735135,-0.020648087840535116,-0.30710043200139214,-0.48761982093909106,-0.04003299733215398,-0.22173683080812848,-0.26368477774696963,0.14997916835602176,0.06034968811941861,-0.07668863687917357,0.033454477528023975,-0.4922395850493066,-0.34089772991480405,0.2655663367269073,-0.7808383705565818,-0.43604521013329983,-0.3114463440171415,-0.1638725708129995,0.2029919892439209,-0.43556766602061675,-0.05873853772396525,-0.13936397950674514,-0.15824497015621017,0.09896015002222797,-0.4453475148919388,0.06828477180118653,0.30397722214801826,-0.3321845195055444,-0.6523989355015726,-0.053690016743545954,-0.33118337128500863,0.02823116278791502,-0.48576152822347246,-0.2955989064400776,-0.2042643237969202,-0.06644299737833181,0.21722675473825354,0.30912413927557403,0.049446522455456936,0.18284920894724507,-0.7045788704531202,0.09747944193284734,-0.4722724515200132,-0.37043563143144675,-0.545774112340711,-0.33967174922880194,-0.540560566371584,0.24084523740087344,-0.1606396944790423,0.07642084302172886,0.10260027207804748,-0.19119778070051763,-0.011401497699430899,0.2306472042647584,-0.09558856355845857,0.24799873432730737,0.2006260088827259,0.45387583045062574,-0.15243556871506353,-0.22470882393868732,0.4786526773350349,-0.3260724882345395,-0.3267654766010577,-0.33016558786905575,-0.25879428931347964,-0.11193389268981568,-0.2763899305093322,0.2460254543163025,0.1951216831120262,-0.05117145721301107,0.021496341358198563,0.268965392976187,-0.22864963196725144,0.2747621255047899,-0.22437456347530912,-0.5536457144098277,-0.39911864606163405,0.05528250727861013,0.24068822581857316,0.07792232034226973,0.13558009985073274,0.42792916341371084,0.41624057010002635,0.2806217230279479,0.442256586731091,-0.1577856358137108,0.22123734526047023,0.07491781119589289,0.11356239402982153,0.4855073764289132,0.11440212093449051,-0.4899807779716226,-0.4140176071963069,-0.5639425966129379,0.018240809387397833,-0.4903171018330426,-0.38224638159597935,0.07539016917186188,0.15620731034240307,0.1475888738540999,0.1309376877893907,-0.15839845936418945,-0.5400081051063831,-0.4100152889023128,-0.1646877719940021,-0.19829223547787825,0.10942760995630668,-0.18736161915929953,0.09722447567667798,-0.007557722000645602,-0.20328795587945103,0.21300197806015078,-0.24588442745531433,0.288408962020647,0.49749286155215583,0.18155054545578186,0.24941266614134272,-0.11778042832696943,0.20451859807946765,0.23832474315794966,-0.1640143482597194,-0.1627043107723785,-0.3734108516772502,-0.2802570822593907,-0.26996835388998586,-0.6694131312423495,-0.20774233081448235,-0.26104466793537145,0.2768395353547708,-0.09208389818915229,-0.046614377627820086,-0.05716703008405681,0.17586870509192595,0.04065852291805461,-0.04136997497120364,-0.18934493981863865,-0.27188228455918034,0.2838905298181612,0.08712305990678866,0.016907515317869545,0.5168998874928169,-0.10582828723234289,-0.13929062091536057,-0.24959643264226847,0.5612824355017584,-0.12749284857951962,-0.36745237033702816,0.3532299550537447,0.038246034109598856,0.4362540681865886,0.14738148507278478,0.06626810123087964,-0.2767550569621144,-0.519544250073944,0.019404153838915403,-0.5443935857666952,-0.38580822345121457,-0.30349181321571284,-0.010983229182907348,0.10318893575944374,0.045449967168246265,0.14934520443735805,-0.1517282711921337,-0.018989049669952445,0.18646751587912888,-0.38640790714111073,-0.21564108539864,0.04669122941023974,0.3115193334322428,0.22247812236598294,0.09471867191057146,0.3199153354136571,0.14256919315860844,-0.08072701669199678,0.4325907228041002,-0.5712178462860436,-0.23370542664794244,0.23630189375355456,0.2953177430513941,-0.12350548437247234,0.045152469139644096,-0.3143184794980786,-0.13777840607739583,-0.5388642640731669,-0.14924703299703695,-0.12752877959682285,-0.08741061215953601,-0.3660121552151206,-0.01544218754111238,0.059832383730253104,0.06763770724416238,0.2920943938901307,-0.24736119719933689,-0.31888479807487496,-0.34436684892033775,-0.1973895641134967,-0.0011390925601903307,-0.21796368065958222,0.46188699604458455,-0.16942893550383697,-0.06121570014832579,-0.1437594723317464,0.05351696615080823,-0.15562033643326342,0.16627440740840807,0.029878659635343308,0.10137559537684462,-0.3018519066125301,0.22609408798025732,0.18623685810880564,0.3893607736604417,-0.4391058080265616,-0.19070974892647066,-0.5809693417051028,-0.4240376769505372,-0.6191610833785162,-0.2713198408774218,0.2362080176982967,-0.18483265061825657,0.14583045899177363,-0.07648831503910963,0.09542737579976669,-0.18778866706366248,0.26879680583112786,-0.41656507334019155,-0.19320652237511113,-0.24097424452584448,0.5624643704472913,0.36080135474331054,0.03603501073990857,-0.03869978261161686,-0.1607730897002605,0.1623703611357846,-0.022636716918447212,0.46535577008449114,0.060079204034286515,0.21290434512535975,0.25600004999692977,-0.25577720623241845,0.023663917970980993,-0.045652820275228025,-0.143827323993557,-0.4214743526795684,-0.10060913645757061,-0.7066449518326284,-0.7171796565623334,0.017401618283495953,-0.0026341787329776717,0.20101858616192375,-0.178610220963795,-0.04223164317862051,-0.48317329724885555,0.22990106706447191,-0.1746174379342379,-0.2437560838486025,-0.24270618169126298,0.011781972000672764,0.6807011701827062,0.1548831743620045,0.06681907657515637,0.017309901454343225,-0.027076278391063403,0.24052589227959278,0.1335234187548464,0.26300296036101145,-0.25170594501278787,0.37873742608487504,0.050068807531170496,0.1581700793745923,-0.11053125480249675,0.41565846724955313,0.10574183503600194,-0.20463538943038695,-0.026565814376988618,-0.17933002583554122,-0.4722818681755093,-0.4835438713498754,-0.21140350693756743,-0.09073719330619363,-0.1998836008519889,-0.2955773030101151,-0.3732373698728843,-0.04632302918959879,-0.4685500619856225,-0.06391325848239139,-0.29819346359106147,0.17540362709382376,-0.2305663605469311,0.30305316458667175,0.03551225273545282,0.10572731877617837,0.18496868473678685,-0.05341514211155121,0.2456358046112185,-0.009230256629432705,0.23682595678350668,0.17855948198029975,-0.04597800504021386,0.06909479421922007,-0.13532521918151752,0.2804087899962654,0.049465799224037335,-0.41541432657641036,-0.019437876559651627,-0.2617678518382815,-0.39452949293989376,-0.29001016030129173,-0.4346729826352139,-0.5629114128370406,-0.2688878913610403,-0.16054140674583706,-0.10970252479418768,-0.14564604101812736,-0.498050461517038,-0.2922628354851499,0.10126385465241008,-0.11230311399920358,0.09342658154802354,0.04389647394356782,-0.4178425702760392,-0.052751170004362906,0.14594793177848625,-0.22314069170573214,0.02285428188767286,0.179237463864349,-0.07290933101009157,0.4284223212985076,-0.07858701044935877,-0.27031987372600175,0.07673033406391135,0.17517360573149213,-0.37337355121262217,-0.23989718694009307,-0.5190299608166963,-0.29946982358750446,-0.1784157151905946,-0.02411047486391909,-0.32816772736590877,-0.3485757388875385,-0.3940302211981925,-0.35254961598880924,-0.7748199382241473,-0.140867098402323,-0.05582003820414229,0.023535090684717427,0.20605152940505483,-0.16742820593462615,0.31923434107229465,0.3746215763616283,0.27093835072504197,0.013264094298490813,0.4194156469191926,-0.026399518224083283,-0.24484106271272954,0.00789084798725479,0.21341302590062677,0.3979453216264548,-0.15364151544410531,-0.058148037686957886,-0.1870356116288951,-0.334852898661375,-0.025158352593229537,-0.22665251104107279,-0.04560214049854206,-0.5999785996349094,-0.6228427827298653,-0.4755162819993215,-0.09859988291185492,-0.431584377739473,-0.5023194276195304,-0.18473304265300985,-0.26342514108292875,-0.23838954049302577,0.3018946130417441,-4.2598950876608557E-4,0.06324425037512423,0.4731764321928227,0.11597164744596455,0.16884240811875492,-0.013522981791823206,-0.17808971064017143,-0.17913051046173617,0.1087425586017687,0.08107956698589669,-0.042161103751781545,-0.007707657168646848,0.4030616553480445,-0.28662198918239973,0.005629986191070809,-0.17907324447204162,0.19319553129669076,0.1721952252448236,-0.005188952345829854,0.21135998818605506,0.39330771927469027,0.013312364513904206,-0.27515967876806385,-0.40895924474023293,-0.2683601642632533,-0.34940237961315956,-0.37324581254271333,-0.5196997950496717,-0.05099139240195216,0.058751880259100296,0.10382389540323933,0.1286510467919229,0.17454729467030344,-0.22950267477815248,-0.4480295634299707,-0.2865567929942575,0.2840697468399117,-0.05968618797630455,0.1087449177667473,-0.20061966091033354,0.07646792979347877,0.10624243425650395,-0.07648834765438658,0.43826185822313307,0.04027267395238243,-0.17398029049802308,0.14110126364063896,0.032114567596969845,0.1008755498369734,0.48109406365852714,0.09631618550445956,-0.3413909376447237,-0.051095946296845114,0.02504124400951697,-0.0955850710666273,0.2347699670040111,-0.01188536506252674,0.26812966643532044,-0.03214629628950031,-0.03209796585063772,0.14326050980114224,-0.1771114024889651,-0.27097565335671636,0.1688199734067306,-0.22564708976531286,-5.5336398233888615E-5,-0.08997267474159715,-0.046467494800458864,-0.0462024534799551,0.11679079535795084,-0.6032400858762542,0.03702470486152677,0.5487237104682895,-0.16509611651569053,0.3298940970774078,-0.19534028298813477,0.0740142001972419,-0.4234519821722301,-0.11960975552549324,0.2512449831959854,0.4029164934779933,0.11175916181867421,-0.2882667492714919,-0.04890972863935837,-0.4481951638649093,-0.31329707222989445,0.2157482735084569,0.20966308643754578,-0.12906720240581482,0.10530353480964279,0.14602281977551632,0.26066870794231295,-0.4547772606724192,-0.14341021046580404,0.20935904242172723,0.07302756452284549,0.4010198083434901,-0.1704907583836939,-0.2449415605486212,0.16658643097482176,-0.1834875943796011,-0.2258899475168352,0.15530966245648417,0.08069295455504516,-0.21811973225765854,0.19621538546780928,0.12529532279042815,-0.5720151531624488,-0.41494443497274475,-0.06686818957957685,0.09137034374272053,0.06411708957733886,0.06355314222445889,0.2478273206462034,-0.31598822730434245,0.07842431067241869,-0.09046909696605929,-0.031025162880739122,-0.32006196082715915,-0.2375014970969533,0.07225990216739561,0.11509089271617845,0.06280151260044606,-0.3471911846117446,0.4574446228229211,-0.05399756896473274,0.15324423623865832,0.211422399813188,-0.04698958368912617,0.09689890321993859,0.03958843460887925,-0.3257550322126613,0.2346554486845757,-0.12645094793534575,0.23126492008246483,0.5308979020417384,-0.1301661072874659,0.014732454019382779,-0.10099048981335032,0.19680549081783358,-0.5486239152731046,0.19093547748746575,0.07159902963541986,0.09890980531340995,-0.11259131180236383,0.21868947521536525,-0.1427450872051303,-0.2166839523437585,-0.09517139162473079,-0.34692395220075156,-0.2034886009913381,0.034024726228225007,0.09018601306397951,0.24809513769183325,-0.10806271200537239,-0.03921402220483693,0.3404606387197904,0.2736214397366003,0.17012343623783036,0.3041730397083444,-0.3644331603907922,-0.27893369880563373,-0.09458932852947402,-0.30063540846814607,-0.240176713829174,0.23694253287054917,-0.4319351526688982,0.29910565736213734,0.20232726432235149,-0.05015281653267549,-0.2721670717700647,0.05012695220108937,0.011208806724146975,-0.33648126128184447,0.03940450612889927,-0.24799114882696152,-0.01990771054799979,-0.18948066318249007,-0.312209884256418,-0.10167313655276433,-0.2992089030818,-0.2367977814848794,-0.04016052152681229,0.19140553105773664,-0.1197264110253996,-0.012648321645221644,0.05091312548808839,0.18146046192826704,-0.3432969854545631,-0.08579641841910444,-0.09408443008179362,-0.2983788259974736,-0.07108171624020196,-0.09722467164103206,-0.5947331553204137,-0.09915021429918566,-0.10803683605238594,0.19906495999075113,-0.047234351733956,0.3770088756823405,-0.20459937952456797,0.09269873629200046,-0.05714742516977708,0.0018342928293577766,0.42274200666156725,-0.07075205078323762,-0.26076074617527184,0.26301963019858066,-0.20156957885573712,-0.31464801828522915,-0.08499859254012164,-0.2512211667906688,-0.05163155293079901,-0.1671218436439686,-0.1769071639995206,-0.25144038018642445,0.05534084785300347,0.20475883682116028,-0.26165606018152754,0.13370269458722117,-0.20925650686096112,-0.048384529183556665,-0.5851145966896598,-0.37842393170645894,-0.01713140387160157,-0.17065459894411475,-0.007831389887644388,-0.023391100060026728,-0.04802892926166109,-0.12161946944798376,0.023884090404442122,-0.22018103170556452,-0.02757166665295515,-0.2688378125716169,-0.021624376616133555,0.05494619987713823,0.1732659849609077,0.17769538609060173,-0.2091332789849955,-0.3045342251513187,-0.38428700753327744,-0.14223174528994736,-0.061738139553106544,0.28810793083603053,-0.10721639112740378,-0.3541451753141161,-0.021487183140817236,-0.3641624983422845,0.23642851979621604,0.05794799435463254,0.06880617514285933,-0.3203098226136967,0.07394724762478372,-0.18011646538772783,-0.06075241945971845,-0.1575503716815659,-0.2071520181894769,-0.10543808390548177,-0.5149719314040536,-0.16143163100586616,0.07258899253323371,0.08782178959405416,-0.3069675575364919,0.07624240830238914,0.23469651127462607,0.016443407783771888,-0.041591472449447456,0.19318194371664785,-0.15761907153010615,0.25675542477422886,0.16101617642049545,-0.17157580318401372,-0.01389103447542841,0.36851941724359627,-0.3190498840468435,0.2980599174394572,0.25997065522991136,0.08893319032143587,-0.14713375760956515,-0.5077131550890205,0.28589093435934293,-0.13287675338490887,0.07490242416955277,0.17092870122515244,-0.383540414493835,-0.19976879215968882,-0.3794799427141488,-0.2638844449662048,-0.2402218587927858,-0.5225348764198442,-0.08560249092412994,0.2818665875635468,-0.1164738649678178,0.3509552207604801,0.4066784510412125,0.3301812508468514,0.2808835366988363,0.29110576761585294,-0.16790163695860275,-0.12263668367099839,-0.263066181699214,0.33435318111462964,-0.2018356393591581,-0.11471378767223614,-0.26248054525363346,-0.19405014360666242,0.3372970511860883,-0.20270578859007565,0.06386030816263175,-0.4616787880999698,-0.10621452988895869,-0.19213867530114567,-0.08323077218942582,0.030619667047827676,0.002336562618707938,-0.05215611863256037,0.12468076722717392,-0.42181127715231553,-0.18242953534111114,-0.3340953749511496,-0.16504517577800812,-0.3981256357363838,0.03603811468077898,0.012393045374009426,-2.2860336800223726E-4,-0.16729872908260848,0.19752435177944727,0.035865533273573294,0.07067321066379917,0.03859175454813716,-0.2891510044491779,0.2139170479037679,-0.27747875560544316,-0.7871992048789527,-0.1528244208196559,0.08790763597852459,-0.003990719535644134,0.029818402511712496,-0.21342081734972765,0.3269321255223385,-0.2089275442276077,0.009014792256041527,0.1684107399260199,0.021545086632554233,-0.19997542164233673,-0.11093066423530155,0.0405061120876802,0.19269749346417725,-0.028092423519263315,-0.21663031735746135,-0.2575147087555954,-0.048974949558161916,0.05290005245769321,0.11832633080064398,-0.038815829613906665,0.09732127444353754,0.2982584319372474,0.2948579581531238,-0.40851288351877263,-0.20416143020496363,-0.4330746617953458,0.09254027892549813,-0.24814102292751417,-0.2907654312639213,-0.2844382043349964,0.048027663884499985,-0.1568268614896376,-0.09944946681463918,-0.008924647208977841,0.013745045700135454,-0.06677040809245208,0.07846685731579553,-0.29400382237559275,-0.14095676330752369,0.502976210048785,-0.31621841725122507,-0.12211649027399904,-0.49929362219443923,-0.12730755427675272,-0.17381217891373735,-0.1145141366534203,-0.35508504546696784,-0.2629153070049229,-0.3036719426674726,-0.06834416180833652,0.20124619421797546,0.07049552516673567,0.35346251229272313,-0.08817721510619857,0.15210383133398372,-0.07575603373057341,0.41501213203486426,-0.2477458935125982,-0.03252722191123922,0.11489730597366124,-0.05462323299993236,0.057760768815568915,0.5041292324561888,-0.08993253274862123,0.34455577968658263,-0.19246362661919222,-0.03397535346613145,-0.21052522041344238,0.0977731777638131,-0.17607622818430613,0.020434528754079393,-0.3154186092318295,-0.2110780369669836,-0.3000582963152409,-0.1343177732840588,-0.009870728841952014,-0.14879252352710104,0.36110328900871697,0.30528178579072485,0.013440668634558136,-0.012540089187977473,0.8860379129480346,0.02600514972790282,0.10260058055617219,0.45159021378282366,-0.40126157366660026,-0.2787033747489999,-0.31239589674898816,-0.025026573322775223,-0.1177200201960382,0.09268648252533392,0.11845034209805684,0.07003976814329498,0.22695017842179774,-0.07135865605420208,-0.1383069712106334,-0.022877677436181944,0.1276632137620167,0.06418749280346202,0.37869808420314544,-0.2085246255217178,-0.03778419642555289,-0.020900105762654414,-0.4251412822816033,-0.6106463260507875,0.11172328960341547,0.022672624112713192,0.13253777647085485,0.4576184375554079,-0.04589643839630076,-0.2953347700373612,0.15602152999412228,-0.3092816398591131,-0.010326908827209897,-0.08780310828074764,-0.12370734844251205,0.045528728788031256,-0.32244983872103605,0.015581903116715071,-0.08112040880196056,0.040282157519159784,-0.21913444406082802,0.009420417322372854,-0.23344139584332757,-0.11369706548408752,-0.31087681916103876,-0.035886329866489174,0.2200860046428794,-0.18881735050571777,0.02870895763691471,-0.05709263040670284,-0.1801488153213304,-0.16104263711555789,-0.3522905522250667,-0.4950518054143736,-0.06600304194338516,0.03644953170591738,-0.13884856361632297,-0.33555797797106807,-0.28760349679965896,-0.2520531697484295,-0.34764704913714944,-0.27404628634247097,-0.048842747615416654,0.16184505186519066,0.01528762063097918,0.3088175815857468,-0.27854230485290715,0.1811227989830724,-0.2863263265412002,0.17274190352328922,-0.5785687688006119,-0.5056512011731129,0.03101011548555559,-0.5208356769630891,-0.2978086288115823,-0.06431683603158521,0.041389812238773124,-0.42701176940776275,-0.2859798355432568,-0.08918806485422968,-0.05063267933967268,-0.2501535918673024,-0.17726117249180637,-0.055971971871374815,-0.2837989793797131,-0.21045685377156634,0.5211064734813091,0.07578267293865629,0.3275674404015647,0.004738864345048648,0.35861371254721014,0.05240709767023264,0.022751069050194136,0.13923233707534038,0.26441817120152805,-0.26469218709385783,0.4707093422557449,0.21703722696877228,-0.23728241551162244,-0.029297893487298766,0.06428815857248485,-0.07985527209039589,-0.18760757919857227,-0.24399854599332516,0.09583994996036292,0.02228639662845343,-0.16439608607525255,0.27847197471317253,-0.01198214094826637,-0.2880869455820048,-0.4207546439891151,-0.2052467811771626,-0.08532725183239895,-0.08158531026231586,0.09880023041356462,0.0977816855889299,-0.1644543642821409,0.13121391751191908,0.2872023011503879,0.12174310677176041,-0.06367778691804715,0.1286013033273965,0.08313100121045737,0.5136556457483351,0.32110099889656896,0.4728287567928271,-0.3078982641576364,-0.03647110858048316,-0.14720110314588733,0.14963132935122592,0.3131638445570354,0.06592982763980212,-0.012739962864369837,-0.0032168608706735127,0.35952276969981883,0.02059711685924721,0.3823579590561598,-0.15327587884717458,-0.013360207772987515,-0.25043425717187073,0.0655175067511263,-0.21531842560975628,-0.2564400440391292,-0.20896481266576408,0.10682891822876786,0.09486595853151226,0.44597416722980743,0.06731507468532605,0.3070580790595995,0.2802650819098046,0.11685611671175812,0.4922371617900197,-0.03976047883059027,0.3707296243126144,0.2514781965371699,-0.23584479756074656,0.14732449394559116,-0.04875360025980375,-0.09022448947134579,-0.12351727647815318,-0.07026189776920323,-0.09744586317861963,-0.2654260289819096,-0.08264920528532244,0.1723605338553886,-0.19163210641317557,-0.21598371021969967,-0.02664942999921592,0.09046880596533116,-0.1043078833825945,-0.15667662764918358,0.3443472357403715,-0.2730831822933791,-0.14042879326028435,-0.23515145587470385,0.3545065888771455,0.026580978158973437,0.0076741626061351195,-0.3132432737458731,0.2740567434762335,0.13353499820645642,0.015905383166886597,0.15985518938893684,0.48929347654677297,0.26981737067713174,-0.1496990361692738,-0.04639966203759106,0.06092697069279455,0.16040516906485305,0.2492259088346996,0.04045838985698806,0.2493253978310304,0.2889888146868601,0.42561745804626394,0.007746232528001289,0.46606573014194247,0.11614843691242076,-0.03966978952965837,-0.13436331951825348,-0.2019902393124654,0.16722144647691034,-0.22435374028998548,-0.3990428786031586,-0.05384536086240322,0.14223143350575573,0.3773365357375446,-0.03571115654224665,0.026390870188980495,-0.210682346358708,-0.13917416850608016,0.17662888752387917,5.2949739133233714E-5,-0.018048729140716167,0.016898981637582956,0.08424536909069413,-0.1273912441704651,-0.15513576452400135,0.3071280069598309,0.07648798216320471,-0.056603484657565886,-0.16730159868300376,0.00959708394845577,-0.1713660688661647,0.21653912163939232,-0.4922316887073625,0.19974917346442442,-0.24205120511704187,-0.4636893165520178,0.10087430607745611,-0.46039619482382443,0.10941519176243181,-0.1858498341035834,-0.4372339150840382,0.431552629302631,0.13803974173602931,-0.23575069764484788,-0.3233978157656056,-0.04372749171465695,-0.2743984797127942,0.05701671754975326,-0.12248609282767116,-0.016832088551738844,-0.03040170007080415,0.10232361075467052,-0.055178796213720266,0.08791418678671663,-0.09711705194001637,-0.04371904484930332,0.3813047659159577,-0.1891953315022344,-0.10181002618165022,-0.19026090470509952,0.09347813729983932,0.3280988569185627,-0.26958222715613805,-0.13142358069194568,-0.030724260681517443,-0.18329096522466268,-0.0874505757665583,-0.3025313804367573,-0.24588668650165973,0.2453098900440096,0.130374970421523,0.07820189832666602,-0.27021825380862585,-0.04641742607146411,-0.3263589018783312,-0.2885016246385504,-0.2093977422037632,-0.3957578048152636,-0.20963445515228252,-0.3582991888016513,0.14968378070061017,0.08319886034792429,0.0031830494449373923,0.23707843065297235,0.28599991848141726,0.004035059538405426,-0.07525058820550337,-0.453746101413164,-0.11722258925791798,0.49947228903917223,-0.30735327935918055,0.12028563291760677,0.16728933800336407,-0.26663900742141683,-0.1411112210000264,0.12791040276734345,0.05188554108888331,-0.5724978136937371,0.21548334467583463,-0.5745317287845533,0.07007300103406895,0.3749805478329025,0.10138652362786316,-0.08845374522994762,0.015273982586294779,-0.2623410499814285,-0.39508403858441293,-0.4864357767214208,-0.5208746696175872,-0.3677513063103109,-0.3183823950269117,-0.3200186879013316,0.19083133946327294,0.3374062720390337,-0.32778260440790336,0.08437922304686733,-0.02494260845300203,-0.324149896407663,-0.22227706909459946,-0.17789945453579048,0.3597639519792356,0.2669733331638161,-0.13323614404725098,0.09205741420166237,-0.029467025361622275,-0.07973481005826148,-0.026646634913179312,-0.2934439665368115,0.05906757766160745,0.16834009955335577,0.08678393939097148,-0.20530510869918164,0.4687329134086461,0.5204980798718208,-0.21248738029802583,-0.02177071903454469,0.07208637107594017,-0.2501597527553538,0.07225458404031526,0.12740070399571532,0.46485972287497146,-0.18145801180205856,0.11824251050754987,0.20201160081124922,0.0771845149286308,0.050781032047777945,-0.08601597702803966,0.18120424000552923,-0.13752069239578638,0.1585508065641437,-0.4481997105349658,-0.16759277788367494,-0.1548856408379528,-0.2792564253324296,-0.24909009874762925,0.20442968366998612,0.36683310745679765,-0.394520799865779,-0.30318665835334097,0.1351473224069894,-0.4037520496440784,-0.0045049713791023216,-0.2517663668295096,0.3176371155106323,0.20927037032952533,-0.19846320010239718,0.08915512411777564,0.32498303403155243,0.279396951741413,-0.12567463097872925,0.10848907933805145,-0.027728816046438093,0.008755270049138368,-0.12482628877681036,-0.41683090565105535,0.270520897139108,0.211330773245632,0.06534750840543763,0.3360669351731923,-0.05897163207455098,-0.09460646106805115,0.1532236632069363,-0.1946631971962384,0.15901440944974443,0.19886243679057589,0.21149918246564817,-0.17119997840605783,-0.1460788828178744,0.2019330584208528,-0.08516530012355984,0.15440118367533237,-0.31443771428945244,0.004485258542742239,0.12090647471645848,-0.03900978751136744,-0.3886322238163665,-0.30062268360256994,0.0427663579756195,-0.04306347144603049,0.21125620739467488,0.259120479360037,-0.02127825683256483,-0.3994849743405681,-0.15535787998278983,-0.006305918044978448,0.12158619737840255,-0.32592712915610933,-0.32447780523900693,0.04974276697332702,-0.065969132815745,0.06854161432182096,0.07762451181376291,-0.49659783484387027,-0.15807950576403848,0.20015663990978064,-0.08562349512054816,-0.049196774376202214,-0.1330869865243189,0.3489779689427429,0.13904867892307282,-0.13740955731923646,0.4660023284896309,0.0848928724490623,-0.3554222617233911,-0.12460207425534114,0.1303331181939159,0.010391989017791417,0.5244640705957436,0.005054411927723695,0.12819838511165987,0.13710783416873365,-0.4060573665996305,-0.09910959272496053,-0.2525919238126599,-0.3359590660702661,-0.05975248930008581,0.2010620184852308,-0.18195924652780926,0.012764485359344891,-0.20467049039105795,0.13920481778825894,-0.16371656797269044,-0.27845357308872715,-0.2134999964882216,-0.003405933417748189,-0.24599912193887188,-0.2379060331968397,0.07144791278443621,-0.11635460439069398,-0.0542318644966019,0.049801595803877115,-0.17976399648575883,-0.5062419783467119,-0.6639399896273953,-0.034323020554289034,-0.4063893287542935,-0.12879798945929727,0.04354762413543974,-0.16018053990801107,-0.08748730424552628,0.13323361326891037,0.3587865321661571,-0.012153174173963494,-0.04563653926962376,-0.3407828462327812,-0.12990505190828133,-0.3663764527804361,0.010593681467906582,-0.0616678081262077,-0.08089579704697504,-0.4770806554924457,-0.3959361598175067,-0.7451640442182512,-0.14158606952493072,-0.046045919180544286,-0.2669596552550924,-0.1533856517646459,0.11378957783417,0.2863233928754432,-0.221681496607304,-0.10716772738382051,-0.2837899729882103,0.023854402655850992,-0.07430621376220933,-0.3070297117210269,-0.12135270807982691,-0.037235313141767624,-0.09830460703378319,-0.2523862206065348,-0.24631681231377453,-0.18169625184980331,-0.396311308463603,-0.008199162860839672,-0.03992769112667713,-0.029354015050248122,0.005776443659728934,-0.014486789431637403,-0.16165830748849605,0.0800543103650539,-0.02360463855788426,0.0496670620831365,0.030366998636090332,-0.21819848708666298,-0.2262376522268698,0.268057536743845,0.19335705466133404,-0.20273440309101043,-0.05947845717378972,-0.06426273937229794,-0.03351968372548119,0.03546617903383371,-0.09893370534708003,0.020834166043838642,0.23328588072342835,-0.009086747500190635,0.23260006970681701,0.17716150272345438,-0.02828133023055254,0.7943128148735058,-0.09306559199704584,0.029381466668355866,0.12147932850538697,-0.5490242926860585,0.15185920368401354,-0.16609206204026397,-0.05049991549601978,0.2327464402436715,-0.19657301728434726,-0.032012962889447605,0.14186339323589578,0.2214282127926188,-0.11708423257509301,-0.45592781847214287,-0.6146678156284201,0.15114187250877537,0.10730016585915556,-0.0548160239001249,0.04753979654259715,-0.4402648027390587,-0.17347902178056765,0.009698023199858354,0.4296692726947891,-0.48452980974166443,-0.19851930712671506,-0.2493372847894424,-0.693713141093701,0.3243584434004928,0.04607586686505071,-0.39421902786659496,0.03498885839659648,0.1402872865204698,0.2607892563764818,0.3928119788857593,-0.1821171678192424,-0.18094555063941034,0.10220397587490658,0.041125430842165266,0.062331327505949524,0.09196459134704499,0.26337129604644727,0.48544875241501084,-0.11895509634342749,-0.37257968599011654,0.530260969420142,0.16495522297446297,-0.3970522889085704,0.22858336515933966,-0.2975719258193738,-0.44503120867278523,-0.4398881091552812,-0.04053260261421067,0.1482057700110901,0.17639249885194663,-0.3855968352729402,-0.031670363035207004,-0.07399735691805417,-0.18742913032140743,-0.16851544646183192,0.19455160023620338,-0.17828312545079733,-0.11409356556533268,0.2622742745971268,0.5605481598436997,0.0040888894213006325,-0.10498781798456241,0.05556012682748845,0.09989874059514271,0.1804595520491209,-0.32296776707553143,0.008700540849489114,-0.02492778036352954,0.3148257989384924,-0.4353992586431201,-0.34958872016410775,0.05816570847524541,0.026563167051266795,0.1518106848757425,-0.10690273722549552,0.5418652279820952,0.10383350913510186,0.08271989737101862,0.032378614048975754,0.10851397400341212,0.036971051965993595,-0.13592441133952263,-0.08415318983656452,0.02195620482598733,0.02268549903622272,-0.0790784393615412,-0.1640713718524977,0.452728267108103,0.2540099382729178,0.12740710220634527,0.021732346742602555,-0.026122290535412755,-0.05630705069562052,0.2580785787947393,-0.10242762362893007,0.5431929364477339,-0.337948482378571,0.4332817776834416,0.10912698008001398,-0.11024318524393031,0.30490886108069265,0.3219554431154279,0.3574919676156431,-0.12158595948113111,0.04809320412070521,0.389559229512117,0.07669687307094354,0.16565711742003306,-0.07729523497822206,-0.10351205411242352,-0.08769937718114544,0.08350441048524479,-0.15287598677898823,-0.17752688963842744,-0.12630731761118869,0.3472079167850992,0.024762063039701444,0.030719948662607865,-0.09019459643662654,0.1151877763485055,-0.28715495011246756,0.5618586182124173,0.043230696276524365,0.41316174927956,0.34750848501531745,0.3790668069795952,-0.291019320268905,0.34324144694152015,-0.07828990705118329,0.134467799884434,0.27286655834117485,-0.2874904143780639,-0.03478803369737364,0.02041761830046556,0.3501992640580058,0.41834317609430144,-0.004005250546310405,0.14090060244447078,0.03553677326634834,0.16526254873113008,0.04837002806977442,-0.3193448774321485,-0.7075946389668668,-0.01510831390302764,-0.1312355012631186,-0.1440874078993861,-0.09321949404864263,-0.18215048456005653,0.17100621468514307,-0.025259157029805003,-0.24637576411416595,0.25281858025848186,0.07395315933603984,-0.14161446010638903,0.05083159654187744,0.0062193397250554314,0.19270706427001247,0.08619705104118311,0.32853118063014747,0.003044012080896357,0.26449118366660795,-0.013492371989502795,-0.08817642204420431,-0.13660877325914603,-0.1937526428771457,-0.11002160326874974,0.13710968989437244,-0.06133953258684781,-0.14683040722555674,0.12525068284954563,-0.0195303180809523,-0.21434604187379783,-0.3235506310565318,-0.40695042187336705,-0.19351641558430388,-0.3538044016206022,0.11533301154633646,-0.12408038704308492,-0.19400001359733204,-0.169339749057255,0.005611199502347785,-0.017144504218417334,0.17129921376643126,-0.24476105943322568,-0.026516200663082523,0.08930657065811583,0.022747666101166176,-0.18303908605341754,0.23068489223217084,0.20489321988194276,0.027034843570757076,0.1416584418757415,-0.25842463442423974,-0.4105569015262446,-0.02277986640945996,-0.11609672515384294,-0.009249652684943446,-0.17823659921391144,-0.3663509910546021,-0.378701830723528,-0.633263165801433,-0.3154604279314643,-0.3433989490750798,-0.5643916149288296,-0.26839204331548505,-0.45739662482820936,-0.5703625741345479,-0.5048758595938345,-0.41257142899663163,-0.5257790394275188,-0.39318967895958296,-0.48168611199051925,-0.34050826605873746,0.25576911628994203,0.08930482089335048,-0.1553181290161938,0.25335647145187085,0.2611733575359265,0.2640352068467364,0.42068396574619343,0.2616596028604964,-0.012981188417132956,-0.05617149956030794,-0.243739925543276,0.1852278207364293,-0.09172080627819863,-0.26212427161071755,-0.22183499964134795,-8.213987200096894E-4,-0.09663048071166562,-0.4697354272586963,-0.07009235924918224,-0.4840206822148285,-0.20524634808778291,-0.4792953905717514,0.29096808713850086,-0.21582541835702532,0.0037653760880603806,-0.18960437988441997,0.02638834836113682,0.20887035446379223,-0.2018802801303579,-0.47278183991138933,0.25014117751612364,0.00728391504339455,0.3987153806631547,0.31257381912382076,-0.5428121876650533,0.09043824312935995,0.23645874928995306,0.7310824279706127,0.17053137443248165,-0.32415042264317256,-0.07618652422614035,-0.3137077988331698,0.2527804102774864,-0.2896337194085783,-0.10045924825128187,-0.3871640403930666,0.06290665644414263,-0.3859600746170903,-0.30980143842447866,-0.48483691337545715,-0.05602554309044587,-0.005589590905424265,-0.027850220234315434,-0.16968406231740737,-0.44894888202528244,-0.05357457543028555,-0.08423219260627851,-0.22071444354981412,-0.07109652724975149,0.16731940359077316,-0.11962976744482158,-0.2413333732439978,-0.06998644778716726,-0.39284037279753187,-0.11995309187349577,0.10420264684113799,0.1941088948883271,0.36667337042037906,0.11575121347683281,0.22559759042801264,-0.030007175173167856,-0.0794176079839112,-0.039512658483130104,-0.2918329120562804,0.042415775889639996,-0.19998164335132046,0.6842591174869308,0.2589766283310712,-0.4703865501680638,-0.42276551820466723,-0.36676121866387795,-0.1638173733512405,-0.05125579755654923,-0.3130176784076121,-0.5653493704539474,-0.23671489978996602,0.44908871807777834,-0.005316893328044169,-0.39211232012245123,0.23198527183218104,-0.6675504734246008,0.20240992632686589,0.3749702762146689,0.07447544754155148,0.49491599633470856,0.44226898320225977,0.04931038841418242,0.5136964364184277,0.007170742946463047,0.049713301060889566,0.17260048844667747,0.017688130634129374,-0.4896404476483734,0.06365538737142723,-0.039198751158452935,0.009453913048528079,0.176617384751314,0.09977242912621262,-0.17219152127538626,-0.6673291100187498,-0.40613211833668195,-0.09486510790099076,-0.6055369884261925,-0.43806487933744465,-0.379337246700392,-0.182970328904114,-0.4043753621604362,0.017298698289348657,-0.020248199403805497,0.12518278402669414,0.07845931460727254,0.12039782169184474,-0.04063806442799892,0.29145668261244595,0.0130509092933989,-0.3856258570733538,-0.168366963948709,0.07896453094500334,-0.08030770610280397,0.520377883799986,0.16017883587929338,0.40277795542351447,-0.16695239339594525,0.2369795457639628,0.2951525067691213,-0.507705446913587,-0.07197834621405502,-0.5986035270566951,0.07681512066197951,-0.502454771740927,-0.5421723738306917,-0.3813148348058339,-0.3902152041952404,-0.43724709578868076,-0.33729175049652427,-0.13785570409167244,-0.16051684004397276,-0.2663004666626653,-0.397345911650231,0.49447746250429975,0.3385543423693974,0.29687934512562225,0.15940325816751108,-0.11956468897134624,0.03509645111794899,-0.07128627941150865,0.11315024356630787,0.22691264015395868,-0.2215401320840444,0.052479074539451484,0.2585654302605873,0.06591728015484857,-0.02790719280927452,0.1673508836258108,0.251407249261236,-0.40311998788588715,-0.03161156791070578,-0.2877180210515448,0.09668047606247773,-0.2951520200189173,-0.1830761640168674,-0.11445015893664412,-0.20267897970586513,-0.11274343544225021,-0.1408492715928123,-0.11167218739421186,-0.4241053781729497,-0.09413134323242538,0.14966847628161314,-0.11871696463094225,0.23733556482033583,0.026633089005635983,-0.1419531929834116,0.2932041256964891,-0.09496820668636428,-0.19059473669682347,-0.06376684077979633,0.19389091571248446,0.03743235718547161,-0.2433484221384515,-0.352680091934528,0.17842750257325884,0.3011930960562203,0.08452312618473154,-0.3093315950528662,-0.3021591899726213,0.03887339771911596,-0.014701120961149491,-0.17264640575931436,-0.018205147431856566,-0.4392954095599678,-0.7101324609497337,-0.5845236014538578,-0.6306243237109355,-0.18435314225984326,-0.2073913412976089,-0.25638436127938535,-0.2553512721947706,-0.06824839602233457,-0.36627148879734506,0.0855018762557275,0.1973862404656568,0.12755634883532388,0.28484170118925073,0.2685210499355931,0.3654693886869119,-0.36675738121942464,0.03588776945987741,0.29456054420400934,-0.018203172096094837,0.1992557599307242,-0.1721391392972432,0.02101936496416527,-0.14855121181652248,0.4752609348663781,0.20507014838362875,-0.034724187370784546,-0.2750874520728389,-0.31403483892427203,-0.7693646740013729,-0.6581429322860702,-0.6270158426698389,-0.6940157150787121,-0.07823241762409833,-0.5026992599078565,-0.2599799326668407,0.22356429801599917,-0.3283878334464083,0.18923296482028176,-0.2053945051147107,0.13511455116581383,-0.11815004011834782,0.16391846733197835,0.263292490164012,-0.09270854845970641,0.4050958502562003,0.12771201188699402,0.02007625871918501,-0.10529653483760328,0.550288490510588,0.023582100064886355,0.1399779674464976,0.033107922236476045,-0.7196242023464311,-0.0157626148255618,-0.08270936479270237,-0.02892114195283473,-0.038246116107814074,0.1401912455305769,-0.2691782151507079,-0.40774494373866754,0.03423778851282083,-0.2739985505938541,-0.3537474652299832,-0.3811614218195869,-0.22347551786656106,-0.02004051392621818,0.11425797953021471,-0.11537109658193291,0.07131377907668744,-0.15021370729688757,-0.23303976914638797,0.07397734009762452,0.17772919096708903,0.20860896660214823,-0.39487668680210053,0.08080324130126866,-0.12341525583394697,0.024574589276507106,0.04498269909372487,-0.03204496220175829,0.3704427739519365,-0.02792526950672948,0.1125782493085233,0.10493055461781299,-0.03837651012315469,0.1125117825780758,-0.17541320557016232,0.16474614562432285,-0.09839675101992014,-0.09925734551267629,-0.19940610954703245,-0.19733832998668724,-0.21045322529183944,0.13259743455482376,0.10075077220599137,0.2787780169781526,0.07038371581536654,0.09492088182440737,-0.2088935478889618,0.10099594436422929,-0.045698112295603395,0.17871880266300688,0.10795710896212568,-0.07553563048764428,-0.0038004598199680452,-0.6386280230577724,-0.038604505302717265,0.04664968681568033,0.04404541356347714,-0.1404847685927118,0.36768155230335386,0.12401310858870836,0.10015271544015726,-0.31323462264363033,-0.18209537707624943,-0.27290105154042194,-0.21637683368536556,-0.06761542679362395,0.02235989045547049,-0.05664694257776899,-0.060612902842445054,-0.27865482329849023,-0.4021524200841046,-0.08402656103368748,0.20497458344044828,-0.1718964277482199,0.002202654619208904,-0.03262797004016387,0.16860677550238481,0.01216373948914289,0.291919922491929,0.4513452987931194,0.006296076104340548,-0.2917472438966614,0.4296068692320969,0.1290271610943047,0.2361684190801592,0.19701816725347535,0.023807816169183392,-0.18467507801778468,0.07272593188924308,2.6946349815495864E-4,-0.058557962242321175,0.07699618584887648,-0.20272986336018256,0.31022733782155365,-0.36902211421490044,-0.02288302231535108,0.4043039371856313,-0.09684727895695712,0.105518233749251,-0.5080188622171521,0.2140761954694142,0.15820312804851336,-0.159039068797968,0.08247991114176614,0.24893860220191633,-0.07058589626327434,-0.2787273109081501,-0.2245149486131829,-0.459135783192197,0.005521856098710863,0.2701291227286379,-0.009374014221934955,-0.17027467704444235,0.08539535553779933,0.13417934872709686,-0.003796386347302052,0.25568263251171663,0.27624726445822956,0.368382482258595,0.07506910562343327,-0.08691539329504672,0.05327641645783752,-0.035602057634879405,-0.11780791671159978,-0.1653951314764476,-0.3535440602061959,-0.1405901308405097,0.10704606864723201,-0.21457646342597297,-0.17983795859940202,-0.02523259756261561,-0.3248759140906038,-0.06806442968605016,-0.043631213094530025,0.36047748223927617,-0.2674876756418782,-0.06425452293960703,-0.10326209518475071,0.12169599315721387,0.3750933590376487,0.11854955555521936,0.06530085375475171,-0.14185878956015846,0.049449420267391894,-0.5888768606906278,-0.03592439863243113,-0.08247021217249967,0.3031146930759178,-0.135199468928895,-0.010164255202778609,0.34282576729070946,-0.1349600926800732,0.0859760304111969,0.395514425319553,0.22727806225002536,-0.2598071287403368,0.31364860060472416,0.3447494805114543,-0.03552973913679601,0.3804025929610046,0.4231494410650926,-2.3873728021365126E-4,-0.21189546339971393,0.24735501127038,0.06469456621260408,0.27018388260694653,0.11541393816501444,0.16871088013308097,0.06727444268390234,0.10560238403384142,-0.18671454821792083,-0.2868020534646001,-0.31087401807719434,-0.0034362796161598735,0.3794140353991275,0.24659491081711946,0.05525191721454762,0.09305966530618813,-0.11726504607162715,-0.17788397827654412,0.33826986683135923,-0.08697237112356536,0.08069219335435024,-0.22392568659425943,-0.3694826755425343,-0.5173371135116637,0.05624645304505612,0.04070925627041172,-0.1404020321248739,0.25475737575145824,0.03829834576777621,-0.2213609298940195,0.2906493926836663,-0.2489949198731174,-0.16779684270271863,0.20831731792205918,0.5308437045849519,0.16296614177751056,-0.2813932249028264,0.12175412837029145,0.13473522597664592,-0.350629333516472,0.169530329974225,0.18385100464510085,0.28589436602120777,-0.10340734721003794,-0.33593979480262554,0.1388850220378407,0.07367506215867364,0.2568346546668464,0.042534451873329666,0.4893145985693429,0.17504336212641314,0.050076650158039526,0.2636977205653578,0.10204177465024712,-0.030856278705138726,0.12445569542196336,0.0216079198453536,0.4768779596934963,-0.0011642291742693129,0.4642456398866393,-7.073965052710722E-4,-0.048662600993788406,-0.016671267421752126,0.06638789795837513,-0.30382054834460376,-0.29280133249138285,0.20496901187876834,-0.3705833308772284,-0.3981539238836661,-0.22905704126503756,-0.0052451801417333545,-0.16468209430860883,0.01878282791810013,0.09826115093179615,0.4662927925539436,0.0727814433420239,0.07252403447252263,0.2865052973943065,0.12031665160816295,-0.11854279266438458,-0.05737615550486359,-0.3511214039473706,-0.12454916176478108,0.3922615214971745,0.36838725314167103,0.04286386670800954,0.19063094947435072,-0.3372967175617429,-0.0647239734540388,-0.13806833170072388,0.27752095186335535,0.015020146302214486,0.061307722199822806,0.0653755921191262,0.2616836179211981,0.15556962836720678,-0.18336037870304978,-0.11061404212365446,-0.4365751974350314,0.07116110499487588,-0.3708326792455807,-0.39178844224668824,0.20388527708437562,-0.10196440625858293,-0.18771527792889248,0.34644981164143396,-0.0922746346307177,-0.45027375688944027,-0.18121324290968752,0.25128268590219616,0.22666480319777263,-0.07110688168881814,0.0616157304717585,-0.19619236416968944,0.20817805815331483,0.07908850369404774,0.1963473428242023,-0.19357085780577463,0.3773681859961569,0.08193164056969851,-0.2783666560309599,0.06218576199704535,0.20180284962849582,-0.09007906766960647,-0.023379838470032076,-0.4007181028769999,-0.22928568920934947,-0.36958208019603683,0.12773900968217727,0.093516089675061,0.12935042110696868,0.06057634965455456,-0.6263154721179346,0.06042223966588008,-0.010019323468703956,0.0720004854663553,0.2056126634742187,0.2770564706506311,-0.40511052779812534,-0.12179575660530363,-0.0788175502335695,-0.07593665489289463,0.5308174011554125,0.1898615550859508,0.35850074169813256,0.4359772756281833,0.13390454089536086,0.0701768205484255,0.2596812624118559,0.08439039739700248,0.1253199216178811,0.3208317970660273,-0.04132311603791942,-0.03375771721803359,0.18343377473462585,-0.0661198868837871,-0.029894346147650987,-0.1447759822333143,0.013537583699265825,-0.18960934090083356,0.10521441923328381,-0.10323637236850175,0.07060159006975172,0.1805714948952692,-0.21432569877193977,0.14538209071024633,-0.19188302585130423,-0.37165253244090884,-0.38452971497193766,0.24499593254086532,-0.11471793162877428,-0.1708292744103867,0.23770918693671866,0.33959916381730654,-0.2102699104320426,0.12614648080340424,-0.00843811212759886,0.18428881287190954,-0.04461336569602476,-0.029433698787046682,0.19938114673390417,0.1516269660478288,0.19706059250129762,0.4438856926251867,0.24587903723176416,0.008971844129245376,0.2791227215909914,-0.15051697613384185,-0.022932051487645988,-0.425301035546137,0.1273929350892202,0.2281277346374031,0.2753009102023813,-0.28493618110414726,0.13272483201921642,0.18302367159328162,0.17609162394216368,-0.225971506805296,-0.44492486446713014,0.11328561428840087,0.02677274211969008,0.3019755576944377,-0.11233186927685239,0.06036761433602557,0.043439879543922894,0.2695467549819227,0.12151212187919905,-0.012087560427231695,0.2292899781671674,0.23632416019647295,-0.04433247747323378,-0.0615948833388226,0.03321159664262531,0.21944477839356208,0.013762325234756265,0.28466815045909255,-0.00393199133107222,0.2750808478501625,0.04541565782059033,-0.399483938617689,-0.3155245874674767,0.7954877450447712,-0.18250566594421636,-0.5027702441271623,0.12272678300326373,0.10876947690077637,-0.15922210444751914,-0.5116499230425116,-0.1621389634519578,-0.536586824327048,0.6121450472982476,-0.0742384145798589,0.11075069677014655,-0.3132457459993519,0.03675004429982933,0.10064370171593724,-0.01864361493820463,0.014551949198726039,0.31588024538995074,-0.08300212155007909,0.029261737448593856,0.17297798153895655,-0.3692804137196698,0.3672597486616185,-0.12274937925646955,-0.06189424497037122,-0.22737007462847075,-0.25561049789906026,0.09285270792994971,0.11858092517257662,-0.13427979200766077,0.045214194337644835,0.2894212714432172,0.19231629315916596,-0.17771976489768804,-0.007276915092574918,-0.2139029248008782,-0.16058141113376928,0.061215208684013596,-0.47847234362933605,-0.26738306513902993,0.003793999990754672,0.023926993870462,0.3141611599017122,-0.016600493123192107,0.10239034419629744,0.23517369534057223,0.4969346875183365,0.3735428091470199,-0.26132391393576804,0.038154767074834346,-0.15481473553458017,0.056585140590951696,0.4779476012193617,0.1782161361387014,0.4057925555888465,-0.14891528270621715,-0.1998320176767027,0.02011530453051527,-0.0027778754320255806,-0.016904806148204367,0.03553596597782584,-0.18070048331496105,-0.26590521222790536,0.10980497871581583,0.11962907882289764,-0.3656011886933237,-0.19761305008450092,-0.09647371176450888,-0.30655648604043884,-0.012840152540388457,0.21308766991266445,0.11127499722228523,-0.10788625798897858,-0.07085369622748454,-0.13303767754248758,0.2813223630915395,0.12210270001052545,0.0030867422501469634,-0.0639136531045252,-0.21947613266620528,-0.15759188322606935,-0.07965894011341283,-0.07013492176576823,0.6648127965232274,0.2099504542011705,0.20623007662890497,-0.026941359332657736,0.3060881079079673,0.2878251378974771,0.0039040061469351266,-0.12508993383319497,0.3884800475482893,0.04912391830468049,0.10702235736149932,0.027073486713507844,0.06132531619053447,-0.41701227842932637,-0.011360436172888292,-0.1383917634845266,0.2548260490821813,-0.08980902252988694,-0.14667867735314494,0.2034041919044892,-0.668416118290942,0.06376561707935566,-0.02399760207279092,-0.2990493406188101,0.2162432125907479,-0.43861336097178605,-0.27396268779247523,-0.07039919249377036,-0.1440768272798352,0.13369621106882285,-0.16501972212881025,0.24124791806147988,-0.14827354780575658,-0.40995759092946216,-0.17774161494038015,0.24589572311114297,-0.15444303962655107,0.24095010955492105,0.17891640732048444,-0.015583276785823047,-0.010254646871691121,-0.014125532086784838,0.2886974016067384,-0.3848711595128106,0.3180649297622279,0.11126786657035663,-0.13068165150235553,-0.39241591250440666,0.19307859777132239,0.12117783872836581,-0.4358681152522675,-0.38951151142937396,-0.00456499802244465,0.10863584290853284,-0.08831094570341265,-0.33398555517136846,-0.0068958025581296505,-0.19464774788783418,-0.27969839108907957,-0.007837980154182836,-0.12003102923812407,-0.2544709332434507,-0.2836225962203188,0.08684047281429848,-0.4835392050472055,-0.268529362153493,-0.09009742012912496,-0.421554777206039,0.25411621310041277,0.09300860212361253,0.18976798143392393,0.07812164662947362,-0.09581730358254648,0.06782757298596163,-0.01693294028171514,0.06529108344666165,0.10412384857815883,-0.26783503693351424,0.03161068654986564,0.19876397071394025,0.46437475338781675,0.1088321389476368,0.02133568871549906,0.174456618735973,-0.2201714898225881,-0.055277143813031296,-0.20844514915829065,-0.2892910030427605,-0.257155373687243,0.13904379628317826,-0.23104274233389915,0.17618963064710913,0.22900937881238306,0.06773676684132252,0.06780868877153697,0.3107467133403368,-0.24728409615852553,-0.05520397294602961,0.2994880156910268,0.06195285885173941,0.0013914006388836334,-0.09479007429879448,-0.6084160564104438,-0.5669998450895645,0.3120855689015426,0.33032995452936675,0.22117260408437173,0.061387313471164204,0.1283541926767725,-0.21239356526137834,-0.3921242568143928,0.11123230676929244,0.011967900771348343,-0.0166122918989819,-0.20647489562061128,-0.3977661561067471,0.43239981439686304,-0.0905709958283096,0.20570494391019728,0.11706307038081211,0.09575958289796255,-0.22540460777067972,0.09456329247590695,0.17930954458787277,0.4364386658015537,-0.23394385390409153,-0.2068895645865407,0.2662932464316591,-0.32080261675547106,-0.21953482099087906,0.12039679014359711,-0.27224949662303477,-0.0036833671928883814,0.1094992287161285,-0.06691567975535422,-0.07741838666182713,-0.01979691030511437,-0.3119079523579109,-0.17515065091523502,-0.15866455980137537,0.03678441426060955,-0.31951623928138867,-0.12036463515471135,-0.21623682673075598,-0.5710002353859476,0.1563461697802293,-0.2625698569434145,-0.30196258595601005,0.20332361764240445,-0.14019514314081094,-0.1277345995610602,-0.17684463940842873,0.19673353553835898,-0.05387688349871966,-0.1535216405518367,0.0724624456434995,-0.12807893150865884,0.6043441371753456,-0.04268553955802389,0.5194803443654726,0.16120483972972524,0.014258380124084504,0.6484405609273618,0.5615494197940375,-0.07031634833545468,-0.24690069299119943,-0.05606300240659448,0.2935811892330257,-0.7283143867779707,0.3427447349006568,0.02241843518813342,0.06377345193935283,-0.2351644292822565,-0.02805900021240363,-0.029589913715188945,0.036592519882766746,-0.17838318854432114,-0.3500230784727692,0.26501921069655426,0.062089872832693245,-0.14857637883314936,-0.05722262235955763,0.32592916995233717,0.19788367088287398,0.3168611657323249,0.1821681415551844,0.2701494803025253,0.23852220847876465,0.1412090242899344,0.42586111947168726,0.32169006185014226,-0.007949085038241103,-0.0785358310693031,-0.0698539353333138,0.015585894855605367,0.3185831351738802,-0.2517962219863659,-0.09047061750245325,-0.12210762700681577,0.08556353981290403,0.23052723575000708,-0.208343452364931,0.0751353842555446,-0.02009700214105972,-0.22160039789587602,0.09752091352162286,-0.2800641283880296,-0.277668734883584,0.3346342517484304,-0.230684216293009,-0.07780937289517785,-0.4320445038285643,0.08549916849284028,0.048025074477825044,-0.1567577582075268,0.4683000887310885,0.30458558122920887,0.39303140633937333,0.33952534766219444,0.33088198761726895,0.26584870278887385,-0.25290299199127253,-0.11944553594791597,-0.37462861056923347,0.3470989607725204,-0.19196949546538242,0.2206596286585931,-0.3230723814721289,-0.022095785496352646,-0.09162636328649379,-0.15380090730610052,-0.4613382908186557,0.03676601524902364,0.16035933208909917,-0.06215265116897406,0.03613224969845256,-0.02514292295271622,-0.09228731428701606,-0.21115005131010128,-0.282902558332381,0.23051511898290886,-0.06036490734812142,0.0528005309602894,-0.2087504239622064,-0.17010626724820355,0.30863587256574365,0.29785880089498246,0.25905337280649376,-0.052656488335684926,-0.04781291810753781,-0.045673443459199554,-0.1094136394081459,-0.3928926315433838,-0.6201858650005468,-0.1283605458026747,-0.09580929466620611,0.2370153713788174,-0.3697395307369285,0.50778445309284,0.2143908642438505,-0.06919826578639524,-0.2427454386269843,-0.1339758635648461,-0.1207280767829931,0.13631444593722633,-0.19007283447230683,-0.16308585815051885,0.25986615109698336,0.17639257331229347,-0.0417559909010061,0.3622041095992796,-0.22947669315688068,0.02493168617782068,-0.018580592266427214,-0.5173606089679195,-0.2049985524863884,0.24883507553881512,0.7241010018463113,-0.022509039674728695,-0.08708157542458539,-0.6302289871292143,-0.315069707385221,-0.1300830269239646,-0.22153701707515638,0.41964228448264207,0.1438628636756263,0.16607292022316794,0.064656850968063,0.14279472605880178,-0.22350589372495144,-0.1279514477248461,0.06361277453886847,-0.41980104648068123,0.08540703879973961,0.10625646537598041,0.18055262316538329,0.17541273256897952,-0.14893335485204134,-0.08854597422128686,0.05708417981345949,0.18962856541279421,-0.24392669234089817,-0.0011761890026189136,-0.4566368727096622,0.22492698107501205,-0.4329824672768319,-0.29707721850372226,0.3629294918774801,-0.023124925362732515,0.022870842048097705,-0.10761957857085287,-0.09761881400790529,-0.09813565915148124,0.04752468140189034,0.3713008617370034,0.6651823437555723,0.2569859975981174,-0.17025223085344568,-0.3900219671009496,-0.307978924127939,0.08054241794091999,0.10954085681638448,-0.12189291047640761,0.0761988703609939,-0.4259660266549046,-0.2886057364924469,0.2687689083938031,0.41522913334951894,0.5868645666174768,0.23076202002148577,0.10201402296131706,0.01956538341474481,-0.12181837978699905,0.07924522608831726,0.03819150081486954,0.04740330086634128,0.43485412627239545,0.10170627183955852,0.02099722069097286,0.1724204022016288,-0.0702834756032707,0.1215768396026612,0.29988028957788926,0.3464056094563815,0.12055725461240697,-0.1633946745141566,-0.5860901879100063,-0.6095955898770558,-0.46910868032973335,0.16538292026990914,0.16760149094338722,0.3568545614520465,0.05013103199146536,-0.0768650901574066,0.14050563388766452,-0.014055991123741772,0.10256984053351882,0.33333622323077644,-0.2833110560337812,-0.2775307784794013,9.99390491522628E-4,-0.14108282350185106,0.296981980962032,-0.0995447721395089,-0.31351174377476554,0.1645321343360881,-0.21560855085373787,-0.09613924811112014,0.3356455674234974,-0.06545913997647426,-0.23698340887871544,-0.21178837267072412,0.09033193925466108,0.2921139620821341,0.26524798587668436,0.18190233841391137,0.15274426565233046,-0.2554524225559775,-0.13813862221512177,-0.07273250002219538,-0.4888134036932866,-0.5101874941946404,-0.4224184601558036,-0.38358990059293785,-0.3977160204896111,-0.35392596173269064,0.216966264915988,0.08303311943470632,0.07723161844412355,0.2167971071588115,-0.2431879377827848,-0.07984644022524985,0.22127915611891058,-0.07529106889429327,0.15776970574909072,0.20832021649239002,-0.5056452515485337,0.21743430517719228,0.21452438648137995,0.02293552307206353,-0.2323761515844267,0.36794600494162694,0.45393974043699353,0.3415331163453314,0.1704825794083651,-0.10890142733656596,-0.2741985029034473,0.20101934622161555,-0.5017677625020175,-0.554074210008284,-0.5302868853814456,-0.740295961851289,-0.442194427374729,-0.3183775159368981,-0.3750221820543978,-0.022754700985817344,0.14117951114213656,-0.0889323141249002,0.34294152585832643,0.1550061378857331,-0.2731269695843144,-0.32762626576965426,0.2586962013548697,-0.3167620514950292,0.17614140486716814,-0.3833283493160136,0.09683516441929939,0.15820986102363,0.20902999422514598,0.044438599853135106,0.013541561802262134,0.18552414886022103,0.2987610031446675,-0.01657301254576215,0.27520750951654915,0.3179581750518217,-0.16162139790978147,-0.36472000459287757,0.05146885768960684,-0.7278103611153484,-0.30618795960536344,-0.42147456971478203,-0.07065338916881313,-0.0802103064916904,-0.34510474865555363,-0.08822172767406218,0.20066733711619109,-0.31483391625375684,0.17205037701400624,0.5155895918731324,-0.3148463094012368,-0.518805042331211,0.03255731273516243,0.3406408224232304,0.05023534196522978,-0.12993696925955078,-0.3757663686425902,0.2608345486138605,0.21089278214798424,-0.08759812705829023,0.2725872805210975,0.5054455807406206,0.4300647785382885,0.08416557116475268,0.08376382331322106,0.1757976816610503,-0.05004733283506033,-0.28878087191164575,0.34955655977239974,-0.25603813908852324,0.031451228082802374,0.06991962055984008,0.167404030505741,0.22277718426089166,-0.25754438478648056,-0.1589823293859405,-0.13299967921648112,0.05356369888554299,-0.22435828437803454,0.37300446822322103,0.0886338552830347,-0.20562104840095444,0.0735737373494664,0.41299258628770125,0.31528670922478313,0.23112428341445482,0.34375148268755634,0.1212428614100797,-0.4423029223946827,0.39887595959907496,0.5283787994217531,0.3773392965702771,-0.09729276664228921,0.16184850152206753,-0.03448155069131548,-0.06476486900624723,-0.17398256286709596,0.3721062985523842,0.1513633643372773,-0.23347833270404617,0.21650162746511917,0.1230082592423164,0.3386317863573477,-0.08763584754518249,-0.28874073740139494,0.1894234781494098,-0.15538169515589897,-0.0790605610429909,0.29107650429779397,0.5251702778672567,0.25424164149456935,-0.24653386344194758,0.06772643031960543,-0.32369170735163694,0.20873027985223036,0.005956113400006384,0.5712238188682045,0.40355793876296603,0.30601456342117433,0.15888624205970156,0.2400712553135886,0.042588736600958965,0.30421033533935216,0.3308092182994208,-0.06489564483689525,0.3719015381310173,0.09480500363904404,0.6485936341917656,0.17950815002493706,0.04400527917361119,0.34357235498628574,0.47695428050094585,-0.08105703475192233,0.22439316853939964,-0.031895555597767904,0.23254935834331933,-0.17326169800310298,0.10215485342134366,0.27144557940099867,-0.10618554360890704,0.22455410493244185,0.32093041757100244,-0.044872754490926106,-0.14891789190908325,0.1759749927792811,0.29294849550450514,-0.05632905150380571,-0.4569023877538615,0.17182446541303767,-0.026056184702790808,0.19077998988795353,0.3463532136531266,0.042056495274181475,0.6012784115587587,0.5384857514564967,-0.1796653767018831,0.4916926610036575,0.4824527011269455,0.40207011781315743,0.17538134992183216,0.09089434606189138,-0.3642211226238972,0.2914366019434055,0.6277220893779205,0.3540876128940445,-0.18422579430594263,0.1117782835334148,0.3600736633230358,0.18612917403863563,0.20314327446481828,0.5649524763320215,0.09298071218324157,-0.03160657911873176,-0.006737737089404399,0.24826108046182543,0.34245153302935644,-0.10625132688756424,-0.06534000970887953,0.3969364305697298,-0.3103076839339275,-0.30527912088908926,0.0376766694758436,-0.008039711595238532,0.5489987587726359,0.25624368356000726,-0.027124550209501844,0.29068626561469885,0.7752228702021207,0.24944914531378853,0.16795519730757538,0.5729739313495084,-0.3480268996999987,0.0636208137117079,-0.05036880480175759,0.5022260278274253,0.2622046141991866,-0.1940404644699124,0.42196345725624923,0.3462303530037372,0.04815330973467917,0.6997413199308627,0.226542435300459,-0.5224413832220625,0.27653057433304196,0.455171252828966,0.381468877578244,0.1001498554661194,-0.376079522352872,0.3114282090100336,0.051269802355270816,0.017918358610098634,0.17803082844429252,-0.43831419034855645,0.5452360927243942,0.05018205241827808,0.1955206051365867,-0.060705473878625064,0.5451738625721468,0.3438404718707277,0.045298753669826955,0.22795195027394882,0.20251584939609565,-0.23831980934912608,0.41264153061596776,0.3002001492356985,0.11084218045430969,0.2628701242143925,0.2504348731012148,0.5580483725053532,-0.4446994742078665,0.28463455818570005,-0.08552935170142813,-0.285562418507162,0.1916383180076848,0.5365833069348201,-0.0029721624474733986,-0.1936860529312734,-0.07250886484141254,0.4246041641908328,0.05229724487348306,-0.1689931189828983,-0.05327916818836906,-0.16278239917063397,0.28691491919571105,0.123054083321183,0.2846263407525813,0.4840707105129748,0.11318649757544938,0.3705139107926901,0.40157794724878093,-0.11975084602366838,-0.09953814465556343,-0.23821573031821544,-0.2968793026173501,-0.29106871913996424,0.16290555189727035,0.5774791462711505,0.12987445911827894,0.06051248349951434,0.11285148916158073,0.5928359914478006,0.17786482872713397,-0.14033447093871917,-0.28392207019118787,0.3135185097297305,0.024824553448755452,0.3380634464653959,-0.5519148644035548,-0.16072109662556153,0.25740760843406746,0.2784659586618232,-0.276141161658344,-0.21784148226226138,0.8099625135822253,-0.25587712062033074,-0.23859754329695917,0.07015552117486815,-0.4349326611449348,0.13127803146570108,0.1264620526842058,0.26553753030597393,-0.07679665429446453,0.09961169084257526,0.021347837080315228,0.4299466674201872,-0.04952156687548535,0.06406442203783658,0.3911400318049846,-0.15571293967320815,0.2595705575410793,0.8046774108289461,0.028090988994102378,-0.12545909665016816,0.05569357404139816,-0.06519575683443088,0.35325607226360684,0.09159143356967238,-0.21209565573493921,0.24535971432116155,-0.13957661268854857,0.3068785440847335,0.30977677615154675,0.06244526129722553,0.6734769764826912,0.0676413747176939,-0.2545278024675631,-0.07198398289719157,-0.1670699919061134,0.5336261546960165,0.32926769536798967,0.3946462752178894,0.08713752376603225,0.5750276662598905,-0.061439420428109105,0.30661642090927516,0.12681920270244837,-0.044369937358938266,0.3595396020699221,0.03632173590557129,0.138996648039125,-0.02976715023346939,-0.26060508927544895,-0.040586306778119384,-0.2998077401307583,0.4178463193428051,0.4879839634159124,0.038382284429699015,-0.1994010222178968,0.10979491632913725,0.28643725603156167,0.09537553543913439,-0.6531388545765318,-0.21714939247459056,-0.15078251159332606,0.14736718265803378,0.14581701303719766,-0.09319303795728821,0.3296902972717006,0.13245160560572655,0.5478947143416644,0.2425070043277029,0.24931346695963244,0.002095609790322624,0.04027807845244928,0.19046932676464803,0.14737176513039082,0.09849671461385949,-0.11812091812169984,-0.05255720869120655,-0.11439520980131311,0.12219792659049088,0.2526790123265183,-0.0015796994479455237,0.4003963028792658,0.22608361468023813,0.16209489890654183,-0.03896271061257874,-0.3237924666921174,0.26766095200787526,0.2112261484525441,0.014271509535065532,0.11281785940010977,-0.11943694987663325,0.0734229938614453,0.030521090760802703,0.3084221077510228,0.011031037249825851,-0.15027417860075687,0.16837656631751494,0.21145120720900673,0.19074589841477022,0.5218292617927923,0.46028825948739793,0.5406911758774315,0.16178248881737922,-0.30670068789259497,-0.287167030964065,-0.021792741774380002,-0.34738977263645315,-0.5731271618237811,-0.3638119271040725,-0.601191643358964,0.046929033347037845,0.26273964821249435,-0.03513807829266087,0.43660335678780626,0.026644933062254118,-0.5893301460214563,0.03314662279924934,0.5827498264622175,0.2929618140834542,0.32185467680704777,-0.23232550496524426,-0.39163409149036493,0.1922454352783841,0.591016970339063,0.06926883952222877,0.19521999854912792,0.13323437261114746,0.23336940418437657,-0.03520568938649301,-0.00690482967677982,-0.483537546175166,-0.409541763759508,-0.1496060368791575,-0.3507502336479372,-0.1099363203703114,0.19518848223949012,0.1260400979352963,0.6509142685541803,0.3598661425671307,0.21057998448034027,0.2999209814413149,0.1312638764076713,-0.14017051063327565,-0.06333501829140199,-0.0927943540874222,-0.5611141890784087,-0.48622987147264324,-0.15783332550919307,0.09035525672370671,0.29816714620070006,0.48578512470646773,-0.1625464244970564,-0.24500909751925876,0.1257386294634011,0.36775931499261993,-0.026112592858056095,-0.10154492839717373,-0.1369369473894665,-0.4876614853659208,-0.6943291996877125,-0.7275800918373918,-0.09813697442834807,-0.18646165535206768,-0.05706787696711222,-0.27060642592389716,-0.04528684867784938,-0.2748301450417398,0.07640218709464655,0.11760089850935784,-0.015414002825839601,-0.10847841855502716,-0.30573575253265156,-0.1522999685098453,0.06883558396327905,-0.3814288813084628,-0.060303603376957664,-0.155384005045971,0.0429878599782524,-0.026758528595874683,0.20001871866626503,0.36566123740459033,0.13079932401259078,-0.08571698400791856,-0.03603223590160875,0.04083966355172024,-0.16935424996645634,0.2762794603946724,0.10865287746110239,0.25419910303879095,0.518337461003636,0.2954318003958944,0.38079747241280526,-0.049924337970870925,0.0727843191863464,0.09380540097521552,0.18503769666260808,0.2958476612840293,-0.10223840879071557,0.32492451615607754,0.4196183351056232,0.6317550786288741,0.3123924956080544,-0.1565120720094596,-0.12708102195469528,-0.6326113372257783,0.052360199873427354,-0.1016116376376358,0.2182802937119509,-0.018125131596747387,-0.21133906519836906,0.6352684307609533,0.24481338554262747,-0.018234211842105455,-0.08676613260429246,-0.4901480536163206,-0.14587494882636287,-0.26122336729619483,-0.18576646894855578,-0.13614815080131173,-0.5368297780435167,-0.15170521115449356,-0.35281232469209994,0.06310445091103437,0.06945885918501032,-0.17827090547163693,-0.16039982246559764,0.20951735771072513,0.066051903598804,0.3458477227009365,-0.06218057030459985,0.4072014240752704,-0.04618739146435267,-0.08314104749694815,-0.20712518656047124,0.1690589510763802,-0.05438720561738048,0.12877707294094187,-0.061823533686157624,0.030513198570848617,-0.050485802298894995,0.49872220184609684,0.22676210923195458,0.5186642263277917,-0.16953978848054035,0.40283869447180654,0.01851821613036014,-0.1552497868575466,-0.2542718950069943,0.014232520976105075,-0.0936757342328996,-0.09421609346648963,0.09938348449250652,0.07128198693407048,-0.32388884168824605,-0.056498058835710054,0.05943838791781362,0.033843698566466865,-0.04392188724686181,0.5845610474625393,-0.0376656066128994,0.5564464038616821,-0.37860614261829667,-0.42915606267934,0.2411376513593614,-0.06550649071855741,0.24929298789527468,0.08628262132184625,0.3246530624911171,-0.08710482755895613,-0.23063223585686257,-0.3369009815337181,0.06929477250566629,0.18779991654850753,0.7205925276024325,0.1351295024833667,-0.005365281332332659,0.19857969688543797,0.1503802103807452,0.2741806146727083,0.5423681927323403,0.26699112235285083,-0.0016857022425758605,-0.29590796969503047,0.07292404032590195,0.33320622616557743,0.4760844125973845,0.1080495893705476,0.01663322204132929,0.021026903743422604,-0.3307098567906607,0.006810870856082753,-0.20892288999059125,-0.5977350556960855,-0.11049924099243849,0.2827360134871598,0.5763221855734527,0.05812438075815826,0.0484240847613474,-0.2663879761683669,-0.06792221903026444,0.10962809812811805,0.1996654270658858,0.18281909818454795,0.4165026673837077,0.09234482154202595,0.15658812455784413,0.22538097278855967,0.34730341694578826,0.28750333900537,0.26080264973176753,0.270409460411726,0.23948683947131635,0.4207138102391671,0.4444690150157338,0.2611085420900502,0.3854708659758171,0.047730353152220954,0.06021077127408318,-0.13848640553607794,-0.1625947007518483,-0.3378206721954148,-0.45342858997382696,-0.4094368934206356,-0.10597037135656234,0.22272997245598633,0.5750886614921076,0.4421970329850653,-0.15531793551611978,-0.050312749661087716,-0.11827719072213003,-0.3504249806744944,0.44655924112803225,-0.5730681322320935,0.22181542898402537,0.46035316344335386,-0.09758243249558095,0.16891914532747868,-0.017882704357076753,0.060492054044092906,0.3432215832688257,-0.04650086586583688,0.32947013626751254,0.4019826527744342,-0.18144360179232027,-0.04254536959709755,0.23767064357671694,-0.36360705453859626,-0.11796903709858853,0.043115390558192065,0.18054117105380973,-0.2425553065959349,-0.280215672167596,0.4613200815024128,0.31008724957238076,0.5002298202422321,0.4518549073844302,0.6858768386591055,0.39291734944530876,0.2590208572239527,0.04065379684000746,0.1834060376028466,-0.027947203788209887,0.1702009016492778,-0.44027424965446016,0.2553597326817368,0.02318515367086225,0.019611092377091226,-0.053578312034688144,-0.09370366368788517,0.08377376260783598,0.2952195100704769,-0.3408444237859214,-0.06559025619825153,-0.09410764971690756,-0.4575376594798645,-0.13616409642443295,-0.13845350992604513,-0.33610564397780496,0.045792235467411756,-0.11753910061394196,0.16647980815318708,0.022058940371047785,0.1128102247613786,0.4381339661741348,0.447634700589382,-0.043396188550890266,0.1826341498241497,-0.2948552967173718,0.18262340539028282,-0.335203538500696,0.055408312197993054,0.4534750224717254,0.09291532129563976,0.09085263431320395,-0.36059819941751653,0.20815831564338186,-0.12693973336869183,0.03789608326711071,-0.3168735265246986,-0.24565195656888414,-0.07908827108270987,0.39570286079741096,-0.14174895250648084,0.1925483728977966,0.054519162767721834,-0.19874535746160765,0.12492233843305099,-0.16584593242538223,0.02433130542053593,0.2580380073408217,-0.5700445040721526,0.26790673305260426,-0.039879809675084345,0.16316568590108513,0.18450631792868857,-0.048469329090120306,-0.22503817745554788,0.2429901778242523,-0.1526846882034997,-0.3874968725845145,-0.01391231304825601,-0.07007837456990641,-0.11673075628775707,-0.4250050009548941,-0.02104287051282676,0.0400223539748994,-0.14961830135289525,-0.46710491507014,-0.0646355388857351,-0.6693188787495999,-0.061205950654297375,-0.14983444978211252,-0.36428265900218565,-0.03153505692766356,-0.06811604784651382,-0.02972806573511594,-0.03436180302235628,0.3775236499118683,0.16974283281466174,-0.1574693398037156,0.03603014783053774,-0.29063179920083915,-0.1327287664492978,-0.08975600455969453,-0.5221024661038329,-0.0500348416970294,-0.16896314615886274,-0.07014224533628727,-0.16641052647530258,-0.02319415448506381,-0.6009119855878319,-0.03865722023672727,-0.1528693540970245,0.15821241495037935,0.31285728005436925,0.06923866667629074,0.16605746605450877,-0.2858421911234633,-0.10478417406185,-0.42700361409651044,-0.004822596790019966,-0.15356895903132986,-0.13063742018446436,-0.15268149218907323,-0.05262757264125133,0.36558849474534105,0.30008985678368383,-0.14277916985067104,-0.3139829249889762,0.04333500878345384,-0.290412115173026,-0.03237385576739047,-0.07972016656090981,-0.20448144543682104,-0.04478088782215047,-0.1421073739676957,-0.43983553206066,-0.1053926934382982,0.02275905710682781,0.015373106247989907,-0.03354023791486375,0.34267573146615926,0.44549380968254465,0.2110679324514212,0.06510910585592149,-0.17118242529158945,0.2754571120902698,-0.07053806068233952,-0.32632690664162495,-0.18554844853164473,0.15187488233382354,-0.007368113228146504,0.09776598339975176,0.07563451919900929,0.34370469467202636,-0.08566519997331137,-0.31510270766798665,-0.334435322574039,0.34054790240011384,-0.4204859971562492,-0.04337499761007133,-0.19207051857993185,0.04076374051410933,-0.09715591555171721,-0.8790984438463096,0.2322381837274531,-0.013439841241851446,0.10870562944179114,0.013792724440293112,-0.11900620087490835,0.3156555616480468,0.20686247506910585,-0.100499082515811,0.09030860215232926,0.07561156376269738,-0.10768956279772599,-0.34367603991001744,-0.07346386422846518,0.43717469234227047,0.03352943105408432,-0.059179331303598696,-0.2611025081515217,-0.12676120878933103,0.16118329749543625,-0.27557296971251904,0.08989567966945233,-0.006688915899119544,0.6403325552308788,0.1817298373250643,0.07699555680475374,0.08195978981451996,-0.20243303222511014,0.032553452149648776,-0.1262717060393099,-0.06926523923214305,-0.014536579663295744,3.422144296859743E-5,0.05384687060902747,0.06889541435968849,-0.4585943335996133,-0.13063345334026608,0.19329976370392185,-0.27829520418542064,-0.2038604624820557,-0.06827589384648027,0.29850475646374497,0.13994063618945207,0.22648029649132093,-0.14643503087990997,-0.14258156356778515,-0.5777377537938411,-0.08834404744429804,-0.037984257522788466,-0.3086707071976931,-0.21387129375761774,0.3799054486253504,-0.0753534749459856,-0.2130314248668814,-0.002143981355528832,0.48547153940390286,-0.4063906941223911,-0.27023311159327107,-0.18885044828474318,-0.2547695473313392,0.34474562771625644,-0.25704450421166414,0.014294383746124429,0.2530571211406227,0.13784537372480316,-0.0725646770249598,-0.03545706372250218,-0.14757761826494514,-0.4337616420375384,3.1783079453968747E-4,-0.023200603410280938,0.21727551279755963,0.1935741856517637,-0.07204801230085892,-0.014755359592377377,-0.13709118934452705,-0.12402009389533512,-0.18528153892374097,-0.39823644191927576,-0.19319392285265363,-0.023191830283233204,-0.2707825467446642,-0.06865967430916192,0.10059052544717476,-0.34384764388080585,-0.01691294087230985,0.5074384911977671,-0.04793015057075304,-0.24250092472477772,-0.299328117833894,-0.05489627073905285,-0.2671408152603019,-0.24841380155334492,0.003683404389796142,0.023276075828693652,0.1309869018647812,0.08132271826711886,-0.36793635401747266,0.370402942224327,-0.10294131364303535,-0.3026971550930997,-0.07919979415454734,0.03654014122933881,0.20005861735686914,0.03381088189607642,-0.16018230789666937,0.2362072604394522,-0.02187116038739974,0.1808596783757822,-0.08913147798712785,-0.46343954120127445,-0.16406861810470277,0.24815635208910197,0.18624262715183762,0.052513142849644374,0.21345893396881105,-0.06875893881541875,0.24115615670802945,0.16224524155920322,0.1679304872468895,0.20365193863847766,-0.2932932305132277,-0.5572530123768189,-0.023538304212933008,0.20233928421769717,-0.20002735209485759,-0.032224471978348865,-0.21765799085103157,0.07807205219104064,0.26505908321018024,-0.44222348471847933,0.39341930845894857,0.021090938780641624,-0.36697116791537737,-0.07376559695158706,-0.05074291565621856,-0.2316606005457345,-0.06391813854367714,0.3240042984735734,0.17727969042389535,-0.010031102277654661,-0.05340221673753327,0.044454753934032615,0.08698897420119935,-0.3499061902259425,-0.3606883434770706,-0.0995875839537131,-0.20165450485635367,0.15898618078591475,-0.3093872067100285,-0.37410459044235567,-0.1160751922990192,-0.16955872193944024,-0.5733916499718117,-0.20578570520057599,-0.16255665682869114,-0.1466323416246463,-0.4791802302898113,0.012654974604255537,-0.2868024908231803,-0.10175159527935601,0.1151447365263433,0.2701574239398481,-0.26783162371139363,-0.3479492857018199,-0.13853737724566514,-0.07163568683745936,-0.1181038211234819,-0.31637127294109985,-0.04411893754130105,0.05112991525411917,0.10197678039526098,-0.5677313140779767,0.19957274029315328,0.08771069906078256,-0.06862124990407857,-0.3116316696723228,0.15030147538049754,1.4062869539167942E-4,0.04869338202083619,-0.10641761267800658,0.3002904210446982,0.18030960079498437,-0.18764428309573372,0.12977623251665324,-0.21390253706193227,0.00913789964447948,0.09421389952794151,0.17310003940682325,0.22933420816304637,0.02234727641670801,-0.07699673163208827,-0.1809504194886215,-0.47372387606763294,0.09475198117982958,-0.01213259627101682,-0.19028884086014305,-0.2994381830619538,0.03749017890484903,0.11019133821257182,-0.12220481958375068,-0.2807910366021904,0.4154223344315085,0.4221082754584721,-0.2918899293462929,0.24449551167386083,0.1946568284253288,-0.36551803553582696,0.155919392746788,0.029884590880371417,0.05708588767901326,0.14630373169749586,-0.19388443326024002,-0.18747822586009516,0.29176003144705703,-0.026284122235734807,0.19910750733690172,-0.24778560475236636,0.21757165587741714,0.5212868981536665,-0.165299351613459,0.11439839287842445,-0.2886273071410385,-0.17628866570681534,0.0817107427651972,0.10515558776264426,0.29566891801983414,0.08888205470325597,-0.16031154229051675,-0.01599672915696257,0.5258215962738702,0.07712600306399162,0.2941557187963583,0.10655985477237241,-0.04036362254338314,0.4816558936397711,-0.026721601180920745,-0.11225152830276591,-0.28860112584859166,0.09796345283897492,-0.1394882587516904,-0.2906332855254822,-0.1598484845915032,-0.10351275349860803,-0.24028407809404406,0.05355042439260244,0.3044987552683427,0.05059048222573042,-0.23206291953879288,-0.14065547359962802,-0.08048045683371628,0.12349732974675381,-0.035114044575479134,-0.4964885365967843,0.09039501572322657,0.0428540617486081,0.2387192682426798,0.18830308259308495,0.11965559943040549,0.08289071476294387,-0.08600029375187532,-0.37918461218684346,0.1044274447809598,0.00920934608090474,-0.06489320878278598,-0.28955668471303797,0.5397076620406243,0.23223755869690677,0.17115829277061487,0.23007366933592704,-0.1552732501394655,-0.14469394905669625,-0.14450689925358962,-0.18240780520759603,-0.7003892913135314,0.2654070268758608,0.366141472952298,0.0020274688359210626,0.2816431918989072,0.28673975618263137,-0.28462417747922014,-0.1665897943198488,-0.02339982620610691,-0.0621476963538481,0.19862514364048686,-0.14614501742513475,-0.04117169116099835,-0.06552766691539648,-0.07143558927839841,0.07017266240684919,-0.29617851409901996,0.14591265253374158,0.24368602780728915,0.22907090487953863,-0.2459690761995406,-0.22398146071656488,-0.03386145902217465,0.11246491570433557,-0.1340871429464345,-0.042375043608842713,-0.32159543909269384,-0.20480228235710438,-0.2660600604187567,-0.026692110415982837,-0.30475474073095504,0.11871141564343328,0.3937294974497739,-0.3348982143111772,0.06293412799989587,0.2800898276714459,-0.14854280986048532,-0.17544957556333018,-0.30979000781652394,